const float WeightHidden1[64][784]={{-8.04748767e-03,-4.36470413e-02,-3.64489477e-02,2.27974951e-02
,7.24577535e-03,-8.16127697e-03,-2.44657196e-02,-3.43749660e-02
,-4.29670965e-02,-2.19066310e-02,-4.07229741e-02,-4.13535433e-03
,2.89272270e-02,-3.10613849e-02,2.67967819e-02,4.78651190e-02
,-4.45550870e-03,-3.27951566e-02,3.91912794e-02,-8.34834558e-03
,2.34413520e-02,1.09700183e-02,-3.98603478e-02,-1.99114628e-02
,-2.01421164e-02,-4.83915201e-02,4.29150430e-02,2.94061600e-02
,3.56537348e-02,-4.48466879e-02,4.28556282e-02,-1.04678184e-02
,-4.35596879e-04,1.29644830e-02,-4.37162742e-02,3.02257815e-02
,2.18874499e-02,1.38323989e-02,-3.38559377e-02,1.30011371e-02
,5.09166728e-02,4.31165535e-02,1.93571573e-02,2.76489605e-02
,-1.19235648e-02,5.56610764e-02,-4.44231316e-02,4.76849047e-02
,8.12149406e-03,3.83468123e-02,-2.48274019e-02,4.94839302e-02
,4.54077649e-02,2.65470691e-02,-3.07100919e-02,-2.23407800e-02
,-9.43652738e-04,4.78487255e-02,-2.84015973e-02,2.08646125e-02
,4.23622023e-03,-2.70859465e-02,2.12432286e-02,2.93562216e-02
,4.83915564e-02,-3.23014639e-03,3.56016525e-02,4.58585043e-02
,5.74066289e-02,1.80089822e-02,2.54148521e-02,5.51398216e-02
,3.31963082e-02,-2.10104445e-02,2.25944515e-02,-1.82727889e-02
,1.26891072e-02,1.03089292e-03,4.98386895e-02,-1.25577226e-02
,6.69636541e-03,2.78039980e-02,-3.35527168e-03,-7.81228124e-03
,-3.24492571e-03,-4.68025196e-02,1.67331286e-02,-4.03371999e-02
,4.69990863e-02,3.64471418e-02,1.14619241e-02,-1.77812475e-02
,7.91487621e-02,1.72826249e-02,4.14502863e-02,7.96383119e-02
,4.65760440e-02,1.00155852e-01,9.60995985e-02,6.33573546e-02
,1.04194522e-01,9.05415507e-02,6.12347115e-03,-2.63538837e-02
,3.78464290e-02,-1.72822220e-02,-4.09526423e-02,-9.51459349e-03
,-1.64126321e-02,-1.25477086e-02,-4.00499303e-02,-4.38968351e-02
,4.45128154e-02,7.56211407e-03,1.68787788e-02,1.57750087e-02
,3.60577574e-02,-8.63338809e-03,3.24627048e-02,-1.26722934e-02
,6.07284055e-02,9.88698204e-02,5.95584932e-02,1.19538843e-01
,1.59933073e-01,1.28043649e-01,1.52351729e-01,1.35672002e-01
,1.34637514e-01,1.29698430e-01,8.29700434e-03,3.53376394e-02
,-2.64201812e-02,-6.08932363e-02,-7.73596092e-02,-5.27879346e-02
,-3.90842970e-02,1.60580619e-02,-3.67617437e-03,1.65790349e-02
,-2.80028340e-03,3.75736169e-02,1.14308876e-02,2.13690112e-02
,-3.41150718e-02,-4.92214156e-02,-6.38594938e-03,-9.68009065e-03
,3.26502045e-02,-2.24731681e-02,4.70488401e-02,3.93023474e-02
,-6.89664552e-02,9.23994085e-02,2.97684466e-02,3.67817694e-02
,1.11753559e-01,8.50778057e-02,9.20490444e-02,1.74078395e-01
,1.01327698e-01,2.73946692e-02,-3.10690181e-02,-7.02099568e-02
,-4.15667211e-03,-1.64327765e-02,7.03488680e-03,-3.78815489e-03
,1.10590723e-02,1.04796564e-02,1.65929703e-02,-2.07099717e-02
,-2.59849778e-02,-2.42038613e-02,1.64841083e-02,3.20371002e-02
,-2.69417083e-03,7.25719312e-03,-3.72318003e-02,-4.06883622e-02
,-5.21561556e-02,2.42337312e-04,1.48930643e-02,2.47268409e-02
,6.72779741e-02,1.16312616e-02,1.80603499e-02,7.87362236e-02
,-3.07101925e-02,-8.50809322e-02,-2.22484029e-02,-6.06054169e-02
,-2.35034450e-02,-3.47578001e-02,3.82457533e-02,2.73748888e-02
,-1.93015308e-02,7.55500395e-03,-2.47993782e-02,-3.27219031e-02
,6.16748061e-04,-5.71723186e-03,4.98473906e-02,6.95005048e-02
,6.01868936e-02,-5.56694684e-03,-9.82224651e-02,-1.18415809e-02
,2.96093175e-02,3.17289360e-02,3.59543989e-02,5.56620464e-02
,3.76683635e-02,-8.54162172e-03,2.41246193e-02,-6.20441529e-02
,-1.92888188e-02,-9.37161642e-02,-1.02376798e-01,-1.31768076e-01
,-6.96046925e-02,2.51058854e-02,-6.04090203e-02,-4.70267372e-02
,-3.31265639e-02,-4.33275715e-02,-4.79462749e-02,-4.74005675e-02
,5.73387122e-02,3.61609457e-02,1.21265464e-02,6.78878389e-02
,1.03119227e-04,-3.07144368e-02,1.25952443e-02,-9.87663348e-03
,-2.89699322e-02,-1.06543453e-02,-4.74390769e-02,1.62236453e-02
,9.30415522e-02,5.12922993e-04,-9.93444317e-02,-2.92944787e-02
,-3.12185372e-02,-1.13455358e-01,-8.97926584e-02,-6.52898201e-02
,-1.22533940e-01,-3.71468969e-02,1.75034970e-02,-2.80758749e-02
,-4.09448574e-02,-3.81633707e-02,4.66207246e-02,-9.79134115e-03
,-2.70956865e-02,-1.34047876e-02,2.99825766e-03,4.40882923e-02
,7.64314299e-02,-3.81755562e-02,6.25425365e-02,-1.83289629e-02
,6.64101319e-03,-5.20243414e-02,-3.48021680e-03,1.31989127e-02
,-2.71036097e-02,-4.14254783e-02,-9.54536665e-02,-3.02514566e-02
,-1.05848018e-01,-9.68276582e-02,-6.43284988e-02,-1.70588936e-02
,-1.34866901e-02,-2.22272523e-03,7.66501738e-03,4.28111252e-02
,1.71071690e-02,-5.05777823e-03,1.41244274e-02,-2.47690639e-02
,2.91720739e-02,3.95697040e-02,8.05034607e-02,1.77252413e-01
,5.44352030e-02,-5.94012851e-04,1.00798643e-02,3.53478821e-02
,-2.16438472e-02,7.62498388e-02,5.05121981e-02,-7.05422152e-03
,-2.19849995e-02,1.88464751e-02,1.44659633e-02,-8.35650600e-02
,-2.93867076e-02,-1.15169196e-02,1.42817037e-02,9.03154732e-02
,-4.51492002e-03,2.18141567e-02,3.73365058e-02,9.26795616e-03
,-3.22829006e-02,-1.06335658e-02,6.41565492e-03,-2.76241405e-02
,3.51521638e-04,4.31559418e-02,1.42664476e-01,1.26099396e-01
,-2.17734779e-02,-9.15424601e-02,-8.12013682e-02,-4.14804069e-02
,-2.11525918e-02,1.36267485e-01,9.79833807e-02,-3.30849000e-02
,2.59062844e-02,2.69185078e-02,4.96421483e-02,5.81106556e-02
,-2.11355165e-02,6.01556945e-02,-3.84973417e-03,1.04155323e-01
,5.66575097e-02,5.37359026e-02,3.34745145e-02,-2.78220947e-02
,4.75736479e-02,3.57513114e-02,-3.06958972e-03,1.94585618e-02
,-2.68820992e-02,5.83029480e-02,1.03868222e-01,7.91344534e-02
,-3.32634376e-02,-7.90949410e-02,-4.42239555e-02,-9.26833574e-02
,4.61160768e-02,9.42467217e-02,1.26182611e-01,-2.88006352e-02
,-3.53528821e-02,7.39215164e-02,-1.97613525e-03,9.56589919e-02
,3.28481914e-02,6.23419105e-02,2.96717008e-02,1.17559413e-01
,1.04234333e-01,1.92821063e-02,9.22038700e-03,1.73606138e-03
,-1.69788383e-02,3.10077261e-02,4.10508939e-02,-7.08712696e-03
,-4.15651515e-02,6.50319541e-02,7.30483852e-02,-5.73745080e-03
,-4.44904456e-02,-5.69382783e-02,-5.36454428e-02,1.26834599e-02
,5.86633250e-02,1.12147975e-01,-6.03752014e-02,-1.38277822e-01
,1.65076936e-03,5.73852562e-03,1.64545243e-02,1.00107097e-01
,5.02400898e-02,7.50508580e-02,5.65337444e-02,7.23310581e-02
,9.91996133e-02,6.96008800e-02,2.17603325e-02,-2.17430816e-02
,-1.91359792e-02,4.24471196e-02,6.25838306e-03,-4.63828386e-02
,-5.30221611e-02,1.57081782e-02,8.65181021e-02,-2.24267479e-02
,-6.21894552e-02,-1.18505068e-01,-8.24035538e-04,7.43194615e-02
,3.25919271e-02,8.09264049e-02,-6.52992220e-02,-1.41639921e-01
,-1.00184443e-01,-2.25868566e-03,5.31030793e-03,5.94325440e-02
,4.07068047e-02,8.58019670e-02,1.05329517e-01,1.15394839e-01
,4.85679818e-02,1.13482383e-02,1.98855438e-02,-9.80104882e-03
,-1.92605046e-02,3.25664737e-02,-3.37394558e-02,-3.28727044e-02
,2.41406607e-02,3.29751787e-02,3.34592677e-02,2.66044542e-02
,-1.77924148e-02,-6.48375599e-02,1.99525732e-02,7.53704969e-02
,1.18889362e-02,1.14869913e-02,-5.74330460e-02,-1.77302541e-01
,-3.77183485e-02,-9.37044579e-02,2.02049699e-02,6.86438763e-02
,6.33531632e-02,2.26722685e-02,2.31257107e-02,5.33421290e-02
,9.28201741e-02,5.81163282e-02,1.91027936e-02,4.03322161e-03
,3.84256898e-02,8.51937378e-03,1.82154299e-02,1.50874286e-02
,4.40969117e-02,5.38797647e-02,1.02226982e-02,-6.54835964e-02
,-8.45104104e-03,-3.10936181e-02,6.02394097e-02,4.86610789e-02
,-6.83702594e-02,-1.30936468e-01,-3.40495326e-02,-1.05343408e-01
,-1.00321135e-01,-7.25364300e-02,1.02664347e-01,7.28726266e-02
,6.37916051e-02,1.06096286e-01,4.68775245e-02,1.46290108e-01
,1.18349179e-01,6.91865882e-02,3.53070215e-02,4.31724834e-02
,2.23558823e-03,7.11578955e-03,8.67154792e-03,2.35871431e-03
,8.83616584e-02,1.10977592e-01,4.91752116e-02,4.18178823e-02
,1.26024150e-02,2.77914865e-02,2.60036507e-02,3.83193807e-02
,-1.58886085e-02,-4.95481479e-02,-8.66540677e-02,-7.61829872e-02
,-4.48873353e-02,3.66787540e-02,7.21427473e-02,1.94232916e-01
,1.34501008e-01,1.31956925e-01,1.46450686e-01,1.32458176e-01
,9.28711355e-02,7.46082131e-02,6.14779059e-02,8.40268190e-03
,3.15558073e-02,6.29856825e-03,2.90491824e-02,3.92121570e-02
,1.16867560e-01,4.58753351e-02,9.28140622e-02,1.73171779e-01
,1.75411560e-01,2.12910217e-01,1.73126321e-01,8.07679205e-02
,5.59622842e-02,-2.46482720e-02,-4.39272809e-02,-4.08983926e-02
,-3.97882854e-02,8.91915776e-02,1.76710254e-01,1.85545818e-01
,1.16869266e-01,9.68490564e-02,1.96791699e-01,1.92444506e-01
,1.09688952e-01,-1.81571300e-03,-3.96509628e-02,-1.28776784e-02
,2.15160380e-02,1.56647599e-02,2.30566482e-02,1.18495689e-02
,9.60157883e-02,1.08192285e-01,1.41812790e-01,1.30287831e-01
,1.85315280e-01,2.40552787e-01,1.51033665e-01,1.33212901e-01
,6.05409354e-02,6.38890474e-02,-7.19114082e-02,-1.51414307e-04
,-2.10318564e-02,1.32548315e-01,1.84382313e-01,1.71184137e-01
,1.58385817e-01,1.33601222e-01,1.91047298e-01,1.68177573e-01
,8.05096784e-02,5.73161307e-02,-3.52286507e-02,-1.03915155e-02
,-3.92050239e-02,-3.91477278e-02,-1.64739205e-02,4.02313535e-02
,6.41293247e-02,9.75478601e-02,1.58307391e-01,1.97899966e-01
,1.35729887e-01,1.29073158e-01,1.83271395e-01,1.27141274e-01
,6.77479079e-02,-1.25389207e-02,-6.82614629e-02,-4.59133836e-02
,-2.66241990e-02,1.39024136e-01,2.48596216e-01,2.32666177e-01
,1.56380840e-01,1.79877828e-01,1.12435856e-01,1.26818833e-01
,5.69907185e-02,-5.17025514e-04,-3.21962153e-02,5.33457805e-03
,2.64798828e-02,-1.24453590e-03,3.17179581e-02,6.27750810e-02
,6.70054777e-02,1.36011048e-01,1.41834230e-01,8.58484080e-02
,-8.67036646e-03,3.33431762e-02,-7.30799120e-03,5.97883406e-03
,-6.52195293e-02,7.75494707e-04,4.40061163e-02,2.64953888e-04
,1.52200241e-01,1.69546028e-01,2.26103857e-01,1.90674623e-01
,9.65030752e-02,8.28670431e-02,1.25597081e-01,4.16362692e-02
,2.95974061e-02,-3.11739788e-02,3.93010223e-02,3.70320000e-03
,3.05633818e-02,2.42564921e-02,-1.13968470e-02,5.65502071e-02
,-1.06102767e-02,5.32967694e-02,-3.41680435e-03,-2.51168416e-02
,-3.72106069e-02,-2.78528750e-02,-1.67129824e-01,-9.56702133e-02
,-4.76204870e-02,-3.46919818e-02,5.25417348e-03,9.65072066e-02
,1.80548406e-01,1.57144441e-01,1.36502875e-01,1.44909654e-01
,6.68330487e-02,8.92122371e-02,1.00013900e-01,6.82479390e-03
,1.03570698e-02,-1.41046462e-02,-2.81206196e-02,4.70748451e-02
,-2.17585959e-03,4.14850126e-02,-5.69863860e-03,2.02586787e-03
,1.71285628e-04,-2.31528263e-02,-2.96049000e-02,-9.05999697e-02
,-8.07198880e-02,-2.66566358e-02,-1.16328363e-01,-7.41258244e-02
,-2.37893507e-02,1.05894612e-02,-4.44534911e-02,1.51444991e-02
,5.17941609e-02,1.65170893e-01,1.27232451e-01,1.26395734e-01
,7.27719874e-02,4.32350047e-02,3.36639001e-02,5.53138250e-02
,-1.16862387e-02,4.32410721e-02,-1.56409866e-02,1.71876983e-02
,-4.52394532e-02,4.53885032e-02,-2.09161517e-02,2.63059022e-02
,-2.72935953e-02,-9.70634846e-02,-6.06772121e-02,-6.23421858e-02
,-5.43655018e-02,1.71987378e-02,-5.64459497e-02,-1.19871790e-01
,-1.67250947e-02,2.74588241e-02,3.48397235e-02,8.20191057e-02
,1.38620695e-01,1.67689808e-01,1.69481551e-01,9.79838638e-02
,2.77838607e-03,1.92525537e-02,1.84712886e-02,3.13481771e-02
,-1.77614079e-02,2.61406036e-02,3.51155182e-02,-4.68308495e-02
,-3.70355269e-02,-4.49011464e-02,-9.34257432e-03,4.51132499e-02
,1.51021369e-02,-6.79768947e-02,-4.80448024e-02,-5.40387633e-02
,-3.65844981e-02,1.42684659e-02,-7.98244858e-03,-1.10090581e-02
,3.02345789e-02,4.22208919e-02,3.92323019e-02,-7.43678868e-03
,8.90929516e-03,6.83661314e-02,-9.65986437e-03,7.22965398e-02
,3.46215954e-02,1.29210278e-02,1.03562892e-02,-1.58457821e-02
,-4.05663650e-02,-1.46631100e-02,2.35028801e-02,-4.15021172e-02
,1.91867079e-02,-2.03265522e-02,1.53548565e-02,-9.82772814e-03
,2.83010274e-03,-5.64628898e-02,-4.46752269e-02,-4.33775029e-02
,-6.90050014e-02,1.62750800e-03,-2.94030647e-02,1.18875211e-02
,-4.30366285e-04,-1.76230331e-02,-2.52744041e-02,-3.06457575e-02
,-4.99872758e-02,-4.29571025e-02,-1.45466910e-03,-5.03729576e-02
,1.85944497e-02,-2.74400243e-02,-2.80006261e-03,-1.82416092e-02
,8.82612852e-04,-4.57669730e-02,-1.33398112e-02,-1.38096512e-02
,-2.87037153e-03,-2.45020189e-02,4.76735476e-02,-4.61933183e-02
,-2.75323530e-02,4.70501747e-02,8.49965421e-03,-1.64826091e-02
,9.27622046e-03,-1.74445629e-02,-4.94558274e-02,2.63091964e-02
,-5.00024961e-02,-1.91262419e-03,-4.49159977e-02,-1.61596840e-02
,4.46240926e-02,-4.21504884e-02,9.53466176e-03,-1.80091824e-02
,-6.80337446e-03,4.46073504e-02,-3.98292562e-02,-9.05670530e-03
,-4.66214323e-02,-4.66299250e-02,6.26173884e-04,9.77827120e-03},
{2.13678173e-02,3.48135530e-03,-2.14155164e-02,2.63967493e-02
,1.24212645e-02,1.13165139e-02,-2.30652617e-02,-3.31944997e-02
,-2.63005708e-02,5.87040397e-03,3.92424883e-02,-5.41971267e-03
,3.80264492e-05,-3.56898072e-02,4.81518747e-03,3.24270379e-02
,-4.69978117e-02,3.34469076e-02,-2.58200160e-02,4.76106646e-02
,1.11546155e-02,4.22591823e-02,-3.05589255e-02,-2.23396690e-02
,-2.94895521e-02,-2.31895851e-03,1.10124670e-02,-2.38643300e-02
,3.39317628e-02,-3.41864037e-02,3.58752025e-02,-2.09612620e-02
,3.14628430e-02,-2.16235579e-02,-8.80875488e-03,-3.20140526e-02
,-2.03203002e-02,-4.13154796e-02,-3.81079576e-02,-1.16454556e-02
,-6.76991672e-02,-2.12108533e-02,-1.61909609e-02,-4.59108037e-02
,2.79641338e-02,-2.68011862e-03,2.22101526e-02,8.96411506e-03
,1.51125406e-02,3.18683735e-02,-1.85684217e-02,-2.67415146e-04
,-2.06454975e-02,-4.08762785e-02,2.52573626e-02,-2.80807863e-02
,3.62556425e-02,1.51488872e-02,1.83805975e-03,2.75701954e-02
,3.21012863e-03,2.55526682e-02,1.07021972e-02,-1.33809716e-02
,-1.09111363e-02,-5.20106512e-02,-6.17295505e-02,-1.27192787e-01
,-8.18907237e-02,-9.39564744e-02,-6.93659703e-02,-6.18161009e-02
,-3.96318506e-02,-4.67945091e-02,2.17355818e-03,-2.88019493e-02
,4.92995581e-03,1.80613838e-02,-1.18412175e-02,-5.70766133e-02
,-1.63376815e-02,2.15479943e-02,-2.84668441e-02,-3.22959870e-02
,1.19558997e-02,1.89108663e-02,-3.23654853e-02,4.97646737e-03
,1.14832068e-04,-2.14780004e-02,-6.48679649e-02,-5.02523141e-02
,-7.85380065e-02,-1.28160917e-01,-1.04450091e-01,-2.20873738e-01
,-1.73148921e-01,-1.96797653e-01,-1.94561158e-01,-1.47066007e-01
,-1.31216423e-01,-2.89318596e-02,-4.32267634e-02,-7.38936009e-02
,-2.86234860e-02,-3.98020886e-02,3.61413323e-02,-6.82874075e-02
,-5.93710494e-02,2.04966830e-02,-1.20513063e-02,1.34844083e-02
,3.80528023e-02,-1.97686471e-03,-4.04161382e-02,4.61858824e-02
,2.89596020e-02,-1.69176626e-02,-5.10715851e-02,-5.07678219e-02
,-1.55299496e-01,-2.24677282e-01,-1.71012280e-01,-1.46185517e-01
,-7.93430826e-02,-4.67576923e-02,-8.80736104e-02,-1.41312805e-01
,-1.79737713e-01,-7.87871442e-02,-4.12701278e-02,-1.31855491e-01
,-5.17907409e-02,3.12427883e-02,5.26313854e-02,3.30487274e-02
,1.56311529e-02,-2.44173992e-02,-8.79549934e-03,-1.35117860e-02
,2.63360510e-02,-2.76566104e-02,-2.69905884e-02,-4.67548775e-02
,-2.87281844e-02,-3.18370888e-02,-1.46825907e-03,-5.51444564e-02
,-2.19617807e-02,-2.02914154e-02,-5.65548810e-02,1.53172338e-01
,1.73360129e-01,5.09618161e-02,4.82569713e-02,-3.85083806e-02
,-5.32314928e-02,-3.55982187e-02,-6.65494044e-02,-1.47660472e-01
,-1.23316175e-01,-8.65812536e-02,7.48014399e-02,7.30845716e-02
,8.88013935e-04,-1.49878993e-02,4.24036852e-03,-3.62491905e-02
,-3.98636304e-02,1.56915497e-02,-4.41341738e-02,1.41074259e-02
,1.47353701e-04,-1.11754890e-02,2.76919021e-02,2.84507561e-02
,1.30258390e-01,1.50653113e-01,2.01053733e-01,1.23579709e-01
,1.78063948e-01,1.24875704e-01,5.09106339e-02,4.09048437e-02
,8.76660769e-02,1.81559531e-01,1.11878493e-01,6.68874031e-02
,6.21169800e-02,5.83717162e-02,1.23371488e-01,1.80864285e-01
,1.00326797e-01,7.28802525e-02,1.99608306e-02,1.76650622e-02
,2.08778220e-02,1.01799704e-02,4.39502255e-02,-2.12057844e-02
,-9.22358352e-02,-4.41959879e-02,7.02488711e-02,1.23379229e-01
,1.91146026e-01,1.88197131e-01,1.80507214e-01,4.09149083e-02
,9.20764969e-02,4.61816010e-02,-3.05273669e-02,6.68764769e-02
,1.25102523e-01,2.25452635e-01,2.20202623e-01,1.59383483e-01
,1.59555002e-01,1.78391649e-01,2.04808950e-01,3.55929342e-01
,1.94604281e-01,8.69442282e-02,5.14564382e-02,2.90398345e-02
,-5.32218529e-03,-4.33413834e-02,2.34948159e-03,-3.53095326e-02
,-4.92139052e-02,6.32490789e-02,1.02859681e-01,1.15396322e-01
,1.89925633e-01,2.52827560e-01,1.67607741e-02,1.94648536e-01
,3.82272829e-02,-7.27188667e-02,-2.52079160e-02,2.27929548e-02
,1.54657185e-01,6.10550168e-02,2.81558682e-01,1.24873467e-01
,5.38676768e-02,1.41234297e-01,1.89798269e-01,3.24493108e-01
,2.29643422e-01,7.13580822e-02,8.86105939e-04,-4.25974490e-02
,-4.60832773e-02,4.96426418e-02,2.58143939e-02,8.67747824e-03
,-5.84547027e-02,8.69757823e-03,1.70204846e-01,1.44757072e-01
,1.38401170e-01,1.39719363e-01,1.91262733e-01,1.64727567e-01
,-7.57447434e-04,-6.10104959e-02,-8.83027496e-02,1.28839461e-02
,7.26393597e-02,1.06504455e-01,2.60610932e-01,2.26769241e-01
,4.98739832e-02,7.60781043e-02,1.92171025e-01,2.51015250e-01
,1.28932701e-01,1.02661385e-01,6.79862206e-02,-2.92706291e-02
,-3.71109767e-02,2.19533204e-02,4.54252239e-02,2.77385295e-02
,-2.44346966e-02,7.37086866e-03,1.54001454e-01,9.50756088e-02
,6.06518655e-02,1.55600078e-01,3.83071687e-02,5.24251526e-02
,-2.71897145e-02,-7.59482048e-02,-1.36815702e-01,-7.40493298e-02
,4.68832152e-02,3.66315055e-02,1.67412873e-01,1.07116952e-01
,1.07783547e-01,1.81840002e-01,1.39440635e-01,7.59575066e-02
,8.41478887e-02,8.88632758e-02,5.71717202e-02,1.45940247e-02
,-1.70640583e-02,-3.79923117e-02,3.13806205e-02,7.66576638e-02
,5.76870386e-02,8.34844773e-02,1.34326353e-01,1.05837047e-01
,1.04561826e-01,1.65903423e-01,1.05827687e-01,2.96067749e-02
,-1.88448073e-02,-1.45144483e-02,-1.48458489e-01,-4.71113641e-02
,-6.86119879e-02,4.64424842e-02,3.97809472e-02,8.00189554e-02
,1.55975397e-01,9.06951372e-02,8.71905817e-02,1.06553996e-02
,-6.93421623e-04,1.15775176e-03,1.35390422e-02,-6.49637082e-03
,-2.50015989e-02,-1.20471414e-02,4.74372130e-02,3.03158763e-02
,5.14050022e-02,9.28629596e-02,1.60964708e-01,1.31232319e-01
,1.10441607e-01,7.24172216e-02,1.20518508e-01,1.48187570e-01
,-1.63207801e-02,-1.42486005e-01,-1.82027457e-01,-7.53129486e-02
,-1.40623236e-01,-8.95340342e-02,-1.69539693e-04,8.98667734e-02
,6.09129592e-02,1.71483786e-02,5.28108957e-03,-1.07686829e-01
,-1.14123089e-01,-1.44917701e-02,-4.57519366e-03,1.99306112e-02
,-3.15195577e-02,-1.69925135e-02,4.58200922e-02,5.56899862e-02
,1.64779963e-01,1.62562321e-01,6.05457378e-02,1.88718222e-01
,6.47680863e-02,2.31183132e-02,4.80639864e-02,1.21111634e-01
,2.90532939e-02,-1.80525324e-01,-1.54044605e-01,-1.22058366e-01
,-2.66748683e-01,-1.39923760e-01,-6.02064053e-02,-1.01213129e-01
,-1.95134822e-02,-4.35273471e-02,2.66070247e-02,-1.67750944e-01
,-1.06695690e-01,-5.69653312e-02,1.41803570e-02,3.61941005e-02
,2.92479087e-02,3.05577228e-02,4.52833930e-02,2.90837660e-02
,1.15220339e-01,9.58651097e-02,3.99122153e-02,1.43304646e-01
,-3.80539385e-02,-1.86798722e-02,1.73410493e-02,7.77287776e-02
,4.43220179e-02,-6.81382109e-02,-1.89092916e-01,-1.50408146e-01
,-1.42554132e-01,9.19541691e-02,-8.67485665e-02,-3.35206697e-02
,-9.11454754e-02,-8.09129279e-02,-6.18024624e-02,-1.54611537e-01
,-9.79582074e-02,-6.39876270e-02,3.25348005e-03,-3.08810931e-02
,-3.16704874e-02,-1.66843959e-02,1.13758479e-02,-1.69133872e-02
,-8.17997428e-03,-6.65670893e-03,4.29208905e-02,7.79444675e-03
,-3.13031603e-02,-2.75562766e-02,8.70253880e-02,1.41808343e-01
,-2.55545029e-02,-1.19213803e-01,-7.03090934e-02,-2.46486237e-02
,-7.53843442e-02,1.61944667e-01,-7.90539547e-02,-2.13993741e-01
,-1.82463105e-01,-9.13325367e-02,-8.12677182e-02,-8.39281441e-02
,-1.63257314e-01,-1.84825762e-01,-1.26816740e-02,1.04900828e-02
,-3.16442310e-02,2.05565928e-02,-4.67261794e-02,-2.09938847e-02
,-5.12126862e-02,-1.28419086e-01,-3.45222603e-02,-1.09456974e-02
,1.36140348e-01,-2.18783042e-02,4.05977201e-02,-2.29815096e-02
,8.48506439e-02,1.03575722e-01,-4.57825642e-02,5.69844005e-02
,2.55111539e-02,1.17917284e-01,-1.12415086e-01,-2.51260913e-01
,-1.42853776e-01,-1.96441194e-01,-1.72890761e-01,-1.39600385e-01
,-1.89093193e-01,-1.20394698e-01,-9.67257313e-02,1.41958690e-02
,2.84430992e-02,1.74603869e-02,-5.17376578e-02,-1.27270615e-01
,-1.22181610e-01,-1.57190539e-01,-9.46413175e-02,-3.04806186e-05
,1.32598657e-01,1.40005163e-01,-3.02704181e-02,-2.70695510e-02
,1.06569173e-01,2.30195586e-01,1.09650186e-01,5.06361237e-02
,3.39221282e-02,5.84604869e-02,-1.66870820e-02,-1.90258755e-01
,-1.69943170e-01,-1.77583938e-01,-1.34913492e-01,-1.51573683e-01
,-8.38184521e-02,-1.07184112e-01,-1.01489433e-03,-3.97366699e-02
,-3.04405475e-02,-2.86221622e-02,3.81024769e-02,-5.86180344e-02
,-1.75433893e-01,-7.87870897e-02,-8.43932833e-02,-4.30348751e-02
,-4.59870563e-03,4.10286023e-02,1.05687550e-02,1.01521691e-01
,5.46935696e-02,1.52087763e-01,6.10389364e-02,-8.47511239e-02
,-8.66436308e-02,-1.95085165e-02,-1.40634155e-01,-6.00008544e-02
,-1.03452451e-01,-1.51366110e-01,-1.62603670e-01,-1.29898005e-01
,-1.04781737e-01,-1.08711883e-01,-4.30930580e-02,-3.31489471e-02
,8.82616585e-03,1.30190195e-02,3.32477583e-02,-1.03816040e-01
,-1.60199978e-01,-1.07370985e-01,-8.32390339e-02,4.40789046e-04
,3.43385012e-02,-1.40554820e-01,-1.12495259e-01,-9.86862376e-02
,2.50781043e-02,-1.53145200e-01,-1.28269113e-01,-2.72178012e-01
,-1.65998514e-01,-1.92483652e-01,-1.01872475e-01,-3.16009881e-02
,-1.66934662e-01,-1.62820592e-01,-1.65978610e-01,-9.86281297e-02
,-9.03564728e-02,-6.65794609e-02,-2.29085182e-02,1.04688547e-02
,-1.37840964e-02,-6.46288867e-03,1.51233269e-02,-1.21807617e-01
,-1.66749849e-01,-9.61027845e-02,-4.20924916e-02,-1.69333573e-01
,-1.04483639e-01,-1.29592461e-01,-6.48472742e-02,-6.38114261e-02
,-1.87572918e-02,-5.02725809e-02,-1.96135406e-01,-1.34737607e-01
,-1.57049479e-01,-1.54368439e-01,-2.15909618e-01,-9.74189538e-02
,-2.21906659e-01,-1.47727816e-01,-3.22081196e-02,-3.94913479e-02
,8.29068274e-03,-1.76769665e-02,-2.26417778e-02,1.78294723e-02
,-4.99554586e-03,3.65156698e-02,1.22560150e-02,-7.03142693e-02
,-9.10199590e-02,-1.25216760e-01,-1.12043305e-01,-1.76423042e-01
,-1.05636091e-01,-1.39310275e-01,-2.73580999e-01,-1.63335039e-01
,-5.30019359e-02,-2.10304260e-01,-2.47626856e-01,-2.32916320e-01
,-1.17239232e-01,-1.19060096e-01,-1.22242479e-01,-9.20618591e-02
,-6.80921915e-03,4.87405275e-02,-4.86236862e-03,3.86414844e-02
,-2.00438483e-02,-3.56949858e-02,4.22017305e-02,1.78133336e-02
,-2.71781000e-02,2.02243067e-02,-4.67536461e-02,-5.25540157e-02
,-9.43007374e-02,-1.46512870e-01,-8.45711286e-02,-4.93716494e-02
,-1.08708260e-01,-2.44543165e-01,-1.88663781e-01,-6.80689749e-02
,-2.51634061e-02,-1.08652182e-01,-1.72599537e-02,-1.05747529e-01
,2.77838817e-03,4.38664701e-02,2.41875211e-02,-4.14517311e-03
,5.85243791e-03,9.61058951e-02,8.31206568e-02,8.14815254e-02
,-1.14485220e-02,-1.38201692e-02,-1.69240121e-02,1.80904172e-02
,-4.68760863e-02,-6.04977898e-03,-1.26894940e-02,-2.64069314e-03
,-6.32691288e-03,-2.61673935e-02,-5.73218726e-02,6.05874281e-02
,-3.61186136e-03,-1.39245833e-01,-4.11738427e-02,4.91078331e-03
,6.00580517e-02,1.57401505e-01,2.24861064e-01,2.09560144e-01
,2.84757630e-01,2.87330617e-01,1.74943467e-01,1.08739980e-01
,7.84856767e-02,4.41141097e-02,-2.05941611e-02,1.30919306e-02
,5.79300697e-02,2.32852620e-02,-4.05719080e-02,1.19117216e-02
,-4.00561588e-02,-3.52118661e-02,-4.69383192e-02,9.75820262e-03
,-1.47049273e-02,5.68940776e-02,6.13427479e-02,4.73639509e-02
,1.39292776e-01,7.48507593e-02,1.09466898e-01,1.20733850e-01
,1.68046540e-01,2.28325472e-01,1.42985413e-01,2.22052768e-01
,3.03003981e-01,2.61300452e-01,1.57969053e-01,2.15728668e-01
,1.18810551e-01,6.73467836e-02,5.10957718e-02,6.79367936e-02
,1.52591933e-02,-3.89679145e-02,-8.77636225e-03,1.57292826e-02
,3.25840716e-02,-2.34582331e-02,-7.57964118e-03,3.80270216e-02
,2.72448970e-02,-2.12665923e-02,4.81505772e-02,2.73132903e-02
,8.43899496e-02,1.24427651e-01,7.99654122e-02,1.75350370e-01
,8.03631317e-02,2.09353379e-01,2.17442854e-01,1.81843075e-01
,1.92155313e-01,1.52839552e-01,1.74878818e-01,1.57542696e-01
,1.60458789e-01,7.02319558e-02,2.35549533e-02,-2.38729216e-02
,-2.88585493e-02,-1.75232582e-02,4.49793729e-02,-3.06097437e-02
,2.72551701e-03,-1.50358582e-02,-3.64774422e-02,3.51512082e-02
,8.50661218e-03,3.47773830e-02,4.20567346e-02,-1.11955108e-02
,4.82174078e-02,6.36441313e-02,5.42257083e-02,7.61903074e-02
,1.09702788e-01,1.16132482e-01,1.24399997e-01,1.03047296e-01
,4.42904966e-02,7.13467148e-02,4.85753590e-02,7.42102276e-02
,1.47351847e-02,2.46885365e-02,4.03338155e-03,-3.78100631e-02
,-4.68401013e-02,-2.53634155e-02,1.49833733e-02,-3.88566338e-02
,2.61972131e-02,-4.19169265e-02,-5.89652840e-03,3.92303508e-02
,-8.29135864e-03,2.63690830e-03,8.05470320e-03,-7.13406283e-03
,-1.15379186e-03,3.40939369e-02,-2.75006649e-02,-9.94197299e-03
,2.06538832e-02,4.66652923e-02,3.55894692e-02,4.73007309e-02
,2.85401537e-02,-9.40679416e-04,4.01998775e-02,2.98018012e-02
,1.36028578e-02,-1.52553954e-02,-3.15805983e-02,-3.13808910e-02
,-4.15682276e-02,1.24587715e-02,-2.76473450e-02,-4.78467971e-02},
{-4.84806049e-02,1.58853607e-02,8.31722528e-03,3.95513658e-02
,-2.07955401e-02,-2.58299619e-02,2.42625699e-02,-3.02945408e-02
,1.59152229e-02,1.66549375e-02,-1.25928887e-02,3.18236812e-02
,2.86447301e-02,2.21616351e-03,3.78399747e-02,1.93643306e-02
,3.61814155e-02,9.91011764e-03,-3.13567785e-02,4.16985560e-02
,1.67210137e-02,9.39657806e-03,2.60418608e-03,8.78150911e-03
,-3.99631053e-02,1.52303042e-02,-2.76918839e-02,-2.02883292e-02
,2.99107803e-02,4.09889354e-02,1.97845639e-02,2.53834506e-02
,3.43317535e-02,3.17717326e-02,-2.73334020e-02,-3.67934818e-02
,5.34476674e-02,-4.26115586e-02,2.71444306e-02,-6.53902107e-03
,2.41891505e-02,2.30428313e-02,-6.64855619e-03,5.04733698e-02
,-6.45875936e-03,-4.99617371e-04,-9.13910205e-03,1.98010698e-02
,1.58339273e-03,4.82322166e-02,-1.12701262e-02,3.17631239e-02
,2.93859725e-02,3.72788765e-02,2.05546027e-02,-3.79080616e-02
,-3.58755181e-02,-2.70905538e-02,3.68855016e-03,-1.13576325e-02
,1.45258181e-02,-2.98076423e-02,-9.72852957e-03,4.64769531e-02
,8.42952891e-03,8.57202924e-03,-2.13298457e-02,-2.74853103e-03
,7.57714574e-02,3.05109200e-03,1.19961676e-02,-3.22625299e-02
,4.06556504e-02,-1.33924564e-03,3.80363959e-02,-3.46669697e-02
,1.75298263e-03,-2.11784497e-02,4.22636136e-02,-9.42738149e-03
,2.90305325e-02,-1.79616329e-02,6.24743810e-03,3.99954210e-02
,3.10027848e-02,-1.82367976e-02,3.12566018e-02,-2.75405343e-02
,1.61925115e-02,-2.73142060e-02,1.66786777e-02,-2.83921802e-02
,8.15544722e-02,6.44938887e-02,5.08975570e-02,4.89374406e-02
,9.01421019e-02,1.30761057e-01,7.60459233e-02,1.89380862e-02
,-1.89785877e-02,-3.08398899e-02,-2.47807884e-02,1.69032871e-03
,6.48211246e-03,2.67834505e-03,-1.75304119e-02,-1.39120134e-02
,4.91187172e-03,7.62896753e-03,-2.97541998e-02,1.00544445e-05
,-3.29765239e-02,-2.44858278e-02,-1.37955185e-02,-2.44289248e-02
,-3.39403053e-02,-5.53542842e-02,-1.84211723e-02,1.51244272e-02
,5.63606827e-02,2.91831192e-02,4.66556764e-02,2.84151623e-02
,1.76551392e-02,-1.09443296e-02,-7.35470518e-02,-7.83327522e-03
,3.55318459e-04,-3.07049830e-02,9.39119690e-03,1.94684688e-02
,-9.22318820e-02,-3.25808160e-02,-2.58822439e-02,-8.77901846e-02
,-7.07395373e-02,4.52703786e-02,3.93571372e-02,-5.88924920e-03
,-4.64902998e-02,-3.22033392e-02,-2.65060083e-02,-2.03575438e-02
,3.06938384e-02,-4.55360396e-02,-1.58601991e-02,1.00765165e-02
,4.25467975e-02,7.94849227e-02,3.47259629e-02,-6.83132394e-02
,-1.41213717e-01,-9.93625881e-02,-1.00556303e-01,-1.51775725e-01
,-8.73901769e-02,-5.72497993e-02,2.18703650e-02,-6.98117014e-02
,-4.39314130e-02,-4.99907576e-02,-9.64209867e-02,-1.05740846e-01
,-7.10087159e-02,-4.10545701e-02,4.27042937e-04,4.41874582e-02
,4.27499316e-02,2.73449538e-02,2.73243270e-03,4.97624114e-02
,1.24201849e-02,4.06592671e-02,2.95453157e-02,4.00625170e-02
,6.64120163e-02,8.58841015e-03,1.00896541e-01,-6.11726604e-03
,-4.25976338e-02,-7.34554957e-02,-1.21145554e-01,-2.11384667e-01
,-1.37049065e-01,-7.09539950e-02,-7.12658141e-02,-2.28166792e-02
,-4.36917872e-02,-5.31183333e-03,-3.76323346e-02,-9.47012588e-02
,1.55833632e-03,3.27782874e-03,-1.84623525e-02,3.09594586e-02
,3.90343803e-02,1.70482500e-02,-1.72782992e-02,2.71902562e-02
,2.95655380e-03,3.39621534e-02,6.07585338e-02,5.37498386e-02
,1.43830384e-01,1.35216845e-01,8.75001081e-02,9.98554585e-02
,1.77056460e-02,-4.63575685e-02,-1.65419136e-01,-2.18622660e-01
,-1.61790321e-01,-9.64260509e-02,3.63459691e-02,-2.82415361e-02
,-8.81532024e-02,-4.18891775e-02,1.46661820e-02,2.19658954e-02
,3.53618194e-02,3.59255277e-02,-4.30205704e-02,-2.00784352e-03
,3.67210113e-02,2.28593395e-03,1.46817461e-02,8.36200848e-03
,6.53172075e-03,2.96560830e-02,-1.93909702e-02,5.92693934e-02
,4.71342916e-02,1.35125203e-01,1.55168842e-01,9.52231136e-02
,7.97679875e-02,-2.65374407e-02,-1.34082608e-02,3.30256314e-04
,-3.81252998e-02,3.01518351e-02,-2.35257123e-02,-3.72640413e-02
,8.18972641e-02,-9.16524304e-03,2.92042061e-02,7.57734375e-02
,9.37258496e-02,5.29531793e-02,3.55885263e-02,-3.10040316e-02
,2.63587942e-02,-5.55462382e-03,-5.81398506e-03,-7.79768728e-03
,4.27366516e-02,2.11667481e-04,-1.06506411e-02,3.91013926e-02
,5.47854605e-02,1.13417885e-01,9.34121183e-02,9.39819398e-02
,7.47194637e-02,7.20287381e-02,5.40127526e-02,3.83584830e-02
,8.24354685e-02,5.29792829e-02,-8.17944179e-03,4.36453523e-02
,8.27432979e-02,1.43285567e-01,1.34116812e-01,1.56262477e-01
,1.33888763e-01,6.37707052e-02,5.86108056e-03,4.03544056e-02
,-3.76507058e-02,-1.19091427e-02,4.43376496e-02,6.66062601e-02
,3.96870170e-02,-8.61834173e-03,6.19045793e-03,3.76015183e-02
,1.15760320e-01,1.18167573e-01,1.42657590e-01,1.16683795e-01
,4.47828911e-02,1.70606273e-01,2.29870490e-01,1.29660791e-01
,1.55719758e-01,1.26149964e-01,6.23931419e-02,-7.28714614e-02
,7.17383298e-02,1.80120093e-01,2.07211392e-01,1.31448474e-01
,2.10438862e-01,1.02946812e-01,3.82438792e-02,-1.79579692e-02
,-1.34389854e-02,-5.60115630e-03,1.72595319e-03,5.63604719e-02
,1.62954230e-02,-1.33067426e-01,-1.02971940e-01,1.25295047e-02
,-3.11943562e-02,-6.22072354e-02,-1.29694002e-02,-1.69816472e-02
,-1.00893407e-01,7.52039206e-02,1.02187452e-01,7.62395137e-02
,6.76571021e-02,3.14531182e-02,-6.74096259e-02,-5.07204221e-02
,-2.84873698e-02,1.00810195e-01,1.68618236e-01,9.60658946e-02
,1.80818845e-01,5.63856421e-02,2.22738052e-02,2.39839354e-02
,2.15001583e-02,1.57115058e-02,-9.95305491e-03,-3.60887326e-02
,-1.07958941e-01,-1.48735405e-01,-7.73230207e-02,-4.00329236e-02
,-5.80018721e-02,-1.43124221e-02,-7.02892293e-02,-9.15912221e-02
,-1.05310036e-01,-9.17016771e-02,-1.91967371e-02,-7.06917817e-02
,-4.03903148e-02,-2.04462712e-02,-2.17788025e-02,3.00273131e-02
,6.61622458e-02,7.50174534e-02,1.23876156e-01,6.82406004e-02
,1.34675892e-01,6.93697674e-03,2.86371313e-02,3.01733112e-02
,-2.32538474e-02,-2.53770772e-02,1.16811096e-03,-4.26088103e-02
,-1.76928464e-01,-1.10845501e-01,-8.85142846e-02,-1.45785210e-01
,-1.63361148e-01,-5.88347719e-02,-5.82962649e-02,-1.28053712e-01
,-1.67133045e-01,-1.86497738e-01,-1.89845363e-01,-2.37475360e-01
,-8.08433888e-02,-9.47531974e-02,5.65673381e-02,2.72121575e-03
,5.38149193e-03,6.67981436e-02,7.04467893e-02,1.44707432e-01
,1.48431085e-01,5.63853626e-02,2.33716693e-02,-4.19651760e-02
,1.68737838e-02,3.38729386e-02,-1.00643980e-02,-6.89748835e-02
,-1.60486899e-01,-4.15339162e-02,-1.83137832e-01,-1.69246339e-01
,-1.06282970e-01,-1.02682544e-01,7.92813949e-02,-2.37011589e-02
,-3.61565592e-02,-1.39692420e-01,-8.96888392e-02,-1.23839566e-01
,-2.00525901e-01,-1.22797858e-01,4.37549498e-02,-5.95376978e-03
,1.18698867e-01,4.38650919e-02,8.50201497e-02,1.67343743e-01
,1.55851857e-01,5.64260160e-02,-1.17066862e-02,2.29601944e-02
,2.91451324e-02,1.57359257e-02,3.55743522e-02,-7.63638964e-02
,-1.30119347e-01,-6.06364874e-02,-1.60098663e-01,-7.28324291e-02
,-1.48208255e-01,-1.37836178e-02,7.56676583e-02,2.36352669e-02
,2.70183565e-02,-6.43159705e-02,-1.07303519e-01,-7.53407348e-02
,-1.61578589e-01,-1.03734047e-01,4.94010332e-02,-2.92897918e-02
,4.77135416e-02,7.38063853e-03,-4.12231943e-02,6.09206525e-02
,8.05058510e-02,4.20719471e-02,1.82467419e-02,-1.10737578e-02
,3.98939568e-02,-3.77632996e-02,-3.12536091e-02,-5.56267047e-02
,-5.50924773e-02,-5.10653902e-02,-2.06494529e-01,-1.45767586e-01
,-1.01373785e-01,1.67599910e-02,3.09375857e-02,1.02510171e-01
,4.23690693e-02,5.08754615e-02,-4.93801677e-03,-3.01031544e-02
,-1.04126776e-01,2.73402932e-03,-1.09143485e-01,-9.12021378e-02
,-1.08191753e-01,-6.63469811e-02,-4.74691122e-02,6.18495342e-02
,6.46639636e-02,7.00394785e-02,6.53112643e-02,-4.06940251e-02
,-4.66763177e-02,1.96850930e-02,1.98773448e-02,1.66818670e-02
,3.77344950e-02,-1.46839070e-03,-1.03269266e-01,-8.31938547e-02
,-7.34829982e-02,3.97730647e-03,3.44131812e-02,1.42326221e-01
,1.15164229e-01,7.02395503e-02,-1.22053019e-03,-5.83445736e-03
,-2.17082392e-02,-1.16755092e-02,-8.91288276e-02,-9.94348013e-02
,-1.33107698e-01,-1.16350881e-01,-3.16782149e-02,1.93134562e-02
,3.57741684e-02,-1.56556304e-02,1.32776792e-02,4.04967583e-02
,4.54544938e-02,3.84133108e-02,5.28731274e-03,2.67540260e-02
,2.61417696e-02,-3.20821389e-02,-1.14701689e-01,1.36073777e-02
,7.13548759e-02,1.04410042e-01,1.53796228e-01,1.16372329e-01
,1.96747070e-01,4.11346000e-02,7.34795045e-04,5.36830304e-02
,4.81186659e-02,-5.99537005e-02,-1.21875535e-01,-1.46952219e-01
,-1.79891226e-01,-1.08546622e-01,-8.93894151e-03,5.06131588e-02
,4.36127771e-02,3.24954660e-02,5.61741647e-03,1.81109562e-02
,3.25360353e-02,-1.32056476e-02,2.40851983e-02,-2.05594032e-02
,4.25149828e-02,-3.11770391e-03,1.49236988e-02,4.71087071e-02
,4.51966265e-02,1.41389597e-01,1.89283949e-01,2.26252122e-01
,2.41331452e-01,1.78778727e-01,-7.89002595e-03,-1.08949824e-02
,-6.63940760e-02,-8.80102603e-02,-1.29068593e-01,-2.13676946e-01
,-1.77537405e-01,-8.57410836e-02,7.20770326e-02,2.18724084e-02
,2.58014125e-02,3.04030628e-02,-2.50998876e-02,2.53623776e-02
,2.85994161e-02,-3.34802699e-02,-3.03230185e-02,3.41297597e-02
,8.50476676e-02,5.16063785e-02,9.23750132e-03,8.56420394e-02
,1.29125606e-01,1.91085733e-01,2.66251582e-01,2.22509915e-01
,3.27695710e-01,1.43598045e-01,7.47186718e-02,-2.51249585e-02
,-1.49061177e-01,-1.02423949e-01,-1.49902839e-01,-1.27168657e-01
,-1.58455735e-01,-8.57463197e-02,-2.00236143e-02,3.31230317e-02
,1.95414454e-02,-2.09445459e-02,-4.61627461e-02,1.39067962e-02
,-6.31750770e-03,1.04021960e-02,-2.30544308e-02,2.68957515e-02
,7.10424544e-02,5.00679700e-02,2.75648335e-02,6.59179678e-02
,3.23902659e-02,8.39693718e-02,7.69836422e-02,1.38010437e-01
,1.84770631e-01,6.13086217e-02,4.31827617e-02,8.66381254e-03
,-2.47967216e-02,-4.72663520e-02,-1.37518335e-01,-7.25887903e-02
,-1.59091133e-01,-1.46670162e-01,-2.45886483e-02,1.28015999e-02
,-2.86357888e-02,2.83177017e-02,-2.26570570e-02,1.54925474e-02
,-4.47202795e-02,-3.85233073e-02,1.05943700e-02,3.23616947e-02
,-1.68639086e-02,8.49370147e-02,1.11739730e-01,9.35527053e-02
,6.98246699e-03,7.02809110e-02,6.41669434e-03,9.99588706e-02
,5.07824836e-02,6.69536887e-02,7.11711287e-02,9.58443963e-02
,-1.32857157e-02,-2.20039418e-03,-1.04394367e-01,-9.52587983e-02
,-1.28198667e-01,-1.54666959e-01,-8.77610552e-02,-2.27817491e-02
,-1.23871283e-03,5.27114484e-02,-1.05843442e-02,-2.74632311e-02
,1.12662811e-02,-1.85190587e-02,-1.78570749e-02,5.21043411e-02
,1.66815743e-02,5.26672106e-02,8.03694796e-02,2.97912983e-02
,-3.21551228e-02,2.18367709e-02,7.35342609e-02,9.28365830e-02
,1.32254106e-01,1.13688467e-01,5.79122690e-02,9.50548418e-02
,2.32626947e-02,-9.13925345e-02,-1.17966222e-01,-9.80061749e-02
,-1.25568977e-01,-1.19010213e-01,-5.11969986e-02,-3.25617945e-02
,2.54364582e-02,4.31047371e-02,-4.42962571e-02,2.38494735e-03
,2.50199262e-02,2.06010033e-02,1.82328557e-02,2.14933660e-02
,4.94019183e-02,-1.46008074e-02,2.32848879e-02,-7.07849618e-02
,-3.55212128e-02,-2.04855657e-02,-2.14985448e-02,-3.19027325e-02
,1.18621699e-01,1.54852161e-01,1.55744851e-01,1.53002519e-01
,6.28326739e-02,3.15256202e-03,-5.88157301e-02,-4.80619112e-02
,-1.09113220e-01,-4.16693379e-02,-6.75750966e-02,-8.58329572e-03
,-1.21974036e-03,-2.50967429e-02,-3.49932612e-02,8.62780996e-03
,9.59368796e-03,-3.53312624e-02,2.75647987e-02,2.13971042e-02
,-2.29520888e-02,-3.67618872e-02,-3.14725958e-02,5.74746015e-03
,-1.72340522e-02,-1.63951383e-02,-4.64968812e-02,-2.32437062e-03
,7.02484017e-02,1.71138216e-02,4.34257834e-03,9.34484266e-02
,5.93685776e-03,3.58358083e-02,2.67514381e-02,8.54782149e-03
,-8.43564852e-02,-4.57879506e-02,-6.65441442e-02,-2.09624205e-02
,3.64789633e-02,-1.87111623e-02,-1.34451299e-02,7.15009695e-03
,3.97271425e-02,-2.73337002e-02,2.38551239e-02,-3.93324446e-02
,1.17144196e-02,-5.78571984e-02,-5.84837350e-02,-1.11320212e-02
,-6.36060021e-02,-8.49669937e-02,-5.79228579e-02,-5.07010094e-02
,-4.24912475e-03,-1.27702327e-02,-6.35991192e-02,2.14624882e-03
,-6.99295653e-02,-7.01050241e-02,-3.19363500e-02,-7.54436525e-03
,-7.46763169e-04,-6.65982602e-02,2.27019302e-02,-3.84522397e-02
,-2.14644911e-02,-4.30654821e-02,-2.11088643e-02,-3.83587375e-02
,-3.90893125e-02,-3.19498447e-02,-3.90011580e-02,1.31138093e-02
,-3.50511040e-02,4.90620052e-03,4.10183776e-02,1.30371241e-02
,4.45276823e-02,3.06554898e-02,-4.04845690e-02,-1.75484973e-02
,-1.36114775e-02,-3.33947138e-02,2.03507728e-02,1.82579391e-02
,-3.41024849e-02,-3.83806368e-03,-1.54742581e-02,1.72195672e-02
,3.67547777e-03,3.93510587e-02,1.56702377e-02,1.08277177e-02
,-4.60530987e-03,8.73375703e-03,2.71963850e-02,-8.76069718e-03},
{-1.91704581e-02,1.44399663e-03,4.55429898e-02,4.18941177e-02
,8.42139215e-03,-3.86025664e-02,-4.17267880e-03,1.18800684e-02
,-2.66695281e-04,-1.43118754e-02,2.97714179e-03,-7.14300603e-03
,1.83525355e-02,3.49351805e-02,-1.41551432e-02,4.05604721e-02
,1.51489564e-02,4.49583098e-02,-1.05615767e-02,-3.40182803e-02
,-4.76786779e-02,4.65122832e-02,-8.03968891e-03,-1.15862107e-02
,3.58815459e-02,3.32966508e-02,4.26163338e-02,4.03369252e-02
,-3.58166636e-02,-4.42094154e-02,-2.88051110e-03,-2.51687112e-02
,9.29001485e-03,-1.31762391e-02,1.03197640e-02,-4.01543236e-02
,1.75223632e-02,-4.07657912e-02,-1.65331862e-02,-2.84674553e-02
,-4.62353444e-02,3.21135165e-02,6.98796920e-03,3.88168912e-02
,3.41044318e-02,1.37600591e-02,2.00622951e-03,-5.15976349e-02
,3.24002433e-02,1.70474115e-02,-4.24149382e-02,8.27595771e-03
,4.81174809e-02,4.17870701e-02,5.58080413e-03,-1.00202175e-02
,-1.01045994e-04,1.80524602e-02,-1.99537658e-02,3.41509759e-02
,3.82534975e-02,8.66665130e-03,1.75459571e-02,-4.44667882e-02
,2.42312203e-02,-5.92097458e-02,-1.54064794e-02,-5.91185001e-02
,-8.47127995e-02,-8.49909350e-02,-8.44127970e-02,-5.83078626e-02
,-9.74069981e-02,-4.83913422e-02,-3.12625362e-02,-5.12363289e-02
,9.89433960e-03,-5.53099166e-02,-2.95810025e-02,4.29191068e-02
,2.99494013e-02,-2.95624211e-02,-1.85496859e-02,-4.28717863e-02
,-8.26244073e-03,5.79873022e-03,1.80088856e-02,-3.44392817e-02
,1.07090827e-03,-4.83561632e-02,5.47379273e-03,2.66622140e-02
,1.79812048e-02,-3.17834306e-02,-7.07344853e-02,-5.87215646e-02
,-7.36050702e-02,-1.57171286e-01,-2.12002055e-01,-2.10220929e-01
,-1.95743024e-01,-1.71401684e-01,-8.79261222e-02,-1.19605981e-01
,-1.01040760e-01,-2.25446222e-02,5.56053330e-03,2.80811754e-02
,2.56607982e-02,-1.16842748e-02,4.31504813e-02,2.95115577e-02
,3.59373103e-04,-5.16897468e-03,3.35401190e-04,-2.24205961e-02
,1.71716255e-02,-8.26819081e-03,-4.70053460e-02,-1.24034945e-02
,4.61881370e-03,2.52382960e-02,-7.80258985e-02,-5.32998853e-02
,-1.62869730e-01,-2.38659863e-01,-3.18032196e-01,-3.93255155e-01
,-3.86317687e-01,-2.93556223e-01,-1.97385543e-01,-1.73326682e-01
,-8.54627948e-02,-9.82200725e-02,-6.85715307e-02,-2.27332877e-02
,4.71756226e-02,-4.53727361e-03,-2.50376379e-02,1.08138516e-02
,-2.64201947e-02,-4.23441057e-04,-7.00999724e-04,-3.78544222e-02
,2.45299642e-02,2.78004084e-02,5.73295786e-03,-2.05509456e-02
,-5.68550761e-02,-6.55991181e-02,-2.22399194e-02,-5.89065430e-03
,-1.75196894e-02,-5.29587889e-02,-1.64342810e-01,-3.49658218e-01
,-4.93359256e-01,-4.16210118e-01,-2.89017955e-01,-2.59239279e-01
,-1.83308311e-01,-1.46690282e-01,-7.96935533e-02,-7.56037364e-02
,-4.07647648e-02,-3.56956903e-03,3.96815911e-02,-4.61844035e-02
,-1.01513936e-02,-2.69402908e-02,3.19460139e-02,3.27839532e-02
,-1.61981265e-02,-3.08617342e-02,-4.19961638e-02,-4.43828674e-02
,1.79762645e-02,2.86033341e-02,5.77707697e-02,6.05348353e-02
,7.75933238e-02,1.47495373e-01,1.66343538e-01,-4.70299485e-03
,-1.39331326e-01,-2.38008584e-01,-3.21327899e-01,-3.29401405e-01
,-2.81101027e-01,-1.39038853e-01,-2.12477349e-01,-1.86775929e-01
,-1.10637918e-01,-5.65072905e-02,-1.06170178e-02,-2.61849797e-02
,2.86078343e-02,2.25367583e-02,3.91079375e-02,6.06539527e-02
,7.31239128e-03,-4.84499414e-02,-6.10616962e-02,-3.69038862e-02
,3.03044910e-02,1.30120545e-01,1.46604474e-01,8.22708805e-02
,1.94714548e-01,2.68648489e-01,3.39032267e-01,2.21448528e-01
,3.68444625e-02,-1.87906221e-01,-2.98914128e-01,-4.40619438e-01
,-2.97771971e-01,-2.64913649e-01,-3.19284046e-01,-1.97656600e-01
,-1.81705722e-01,-2.10528889e-02,-2.48958088e-02,3.55866281e-02
,4.65003464e-02,-3.96959403e-02,3.98084301e-02,5.61760221e-02
,1.55261655e-02,-5.55348468e-02,-7.44397218e-02,-6.16928345e-02
,1.60222016e-01,9.89583983e-02,1.54552497e-01,2.35640359e-01
,2.26333687e-01,2.81451594e-01,2.87785704e-01,6.90401740e-02
,-2.34929255e-02,-1.20943930e-01,-1.59449022e-01,-2.46191510e-01
,-2.48583621e-01,-3.07294975e-01,-2.51395010e-01,-2.31527523e-01
,-1.29775606e-01,-1.19816854e-01,-2.74259649e-03,-1.59204036e-02
,1.90466984e-02,3.60105549e-02,-3.44088741e-02,1.38378041e-02
,3.60235700e-02,-7.15154816e-03,-1.17616096e-02,1.03840261e-01
,1.28589873e-01,1.40306142e-01,3.26867628e-01,2.67902996e-01
,2.01758694e-01,2.54260207e-01,2.17423403e-01,8.98337493e-02
,-1.99161541e-03,3.21740165e-02,3.30633948e-02,-5.90409214e-02
,-2.04726800e-01,-3.24448913e-01,-2.31324567e-01,-1.64044093e-01
,-6.68859253e-02,-6.73062007e-02,8.01833779e-03,1.39569565e-02
,-4.28716306e-02,4.26346958e-02,1.40123232e-02,2.20427957e-02
,-3.12756032e-02,-1.82621834e-02,9.06824114e-02,1.28506382e-01
,8.14467838e-02,1.68392036e-01,1.20226191e-01,1.34677954e-01
,8.79800619e-02,9.67397495e-02,1.83820924e-01,1.00377346e-01
,1.15365504e-01,-5.12251178e-03,8.55318963e-02,1.00557497e-01
,-9.89993077e-02,-2.37577155e-01,-2.01120610e-01,-1.32314908e-01
,-6.74807221e-02,-5.86223210e-02,4.16303154e-02,5.22152061e-02
,-7.64063671e-03,-4.15074308e-02,-1.98778298e-03,6.22052026e-02
,2.18329118e-02,8.19653926e-02,1.77951875e-01,1.02593190e-01
,1.25024298e-01,-5.30412041e-03,-4.49122747e-02,5.71398999e-02
,-2.76316911e-02,8.56553391e-02,1.30106861e-01,1.33876712e-01
,1.67332609e-01,2.37751576e-01,1.21930538e-01,1.18523948e-01
,2.95315144e-02,-1.05364228e-01,-2.78320833e-02,-3.65146883e-02
,-2.35178584e-02,5.45928985e-02,-2.87836141e-02,-3.90329091e-02
,-1.54613992e-02,2.19922556e-02,5.48876750e-03,5.76979221e-02
,1.72923264e-01,8.82784817e-02,1.61236467e-01,1.48400734e-02
,2.22536532e-02,-9.06040113e-02,-2.39700610e-01,-2.68395877e-01
,-3.52469673e-01,-1.71767779e-01,8.91362784e-02,1.83014410e-01
,7.15411893e-02,2.09117898e-01,1.15564925e-01,7.40459965e-02
,-2.69642745e-02,-6.79453883e-02,1.05557275e-01,-5.55133454e-03
,-4.79955996e-02,5.58476824e-02,5.73112341e-02,4.34405100e-03
,-3.16319336e-03,-4.08177043e-02,-2.16225490e-02,1.03401316e-02
,8.47243681e-02,4.13753022e-02,7.72702011e-02,3.02075347e-02
,-6.63168816e-02,-1.61824450e-01,-1.69813764e-01,-1.57126446e-01
,-7.34935205e-02,-4.01872586e-02,7.22424375e-02,-3.73511998e-03
,7.19025527e-02,1.54052222e-03,7.72188668e-03,-9.07029028e-02
,-4.46645520e-02,5.66381552e-02,8.25076108e-02,8.81410117e-03
,1.06211818e-02,8.27001817e-03,6.87986334e-02,1.44319250e-03
,1.84157656e-02,-3.86343522e-02,3.43784128e-02,4.66188892e-02
,6.63299571e-02,-5.93767935e-02,-6.50096223e-02,-9.10287309e-02
,-1.00712739e-01,-1.08897694e-01,-1.29309926e-02,-9.99896358e-03
,-6.70279700e-02,-4.62331479e-02,-1.11951256e-01,-1.02348713e-01
,1.69939469e-03,-8.86416283e-02,6.44195738e-03,-9.00918990e-02
,6.09879046e-02,1.29656557e-01,1.04379646e-01,3.47953849e-02
,-4.69529940e-03,7.04326615e-03,5.26527316e-02,2.44888923e-02
,3.96899052e-02,3.28720648e-03,1.95237318e-02,-6.12194069e-02
,-5.05916838e-02,-1.62209814e-02,-8.94950772e-02,-1.73214665e-01
,-8.54641107e-02,-1.13041243e-01,6.61510839e-02,5.12297957e-02
,-5.98764354e-02,-1.24539517e-01,-1.66534533e-01,-3.54821586e-02
,-8.35681932e-02,-4.30889026e-03,-2.56813392e-03,2.08972322e-03
,1.01131310e-01,1.02059923e-01,5.57595678e-02,1.33817509e-02
,5.74745358e-02,-1.26707310e-02,-2.24036422e-02,-3.21016957e-02
,-1.73379160e-02,-3.86095531e-02,-7.60502301e-04,-6.52795655e-02
,4.16389706e-02,-2.02551005e-02,-7.39059116e-02,-5.60719945e-02
,-1.20328847e-02,-4.13286627e-02,4.78766580e-02,1.41071268e-01
,1.15016021e-01,-1.50608789e-01,-2.18516085e-01,-1.85313527e-01
,-1.19109051e-01,-2.37957689e-02,4.80560059e-02,-7.43249056e-03
,5.14801290e-03,-2.40914577e-02,5.28500566e-02,1.39993467e-02
,2.44934701e-02,1.08435076e-03,3.34286637e-02,-6.66658403e-03
,-3.44131005e-02,-4.72540245e-02,3.29952585e-02,-6.14857030e-02
,-5.67699589e-02,-3.07354668e-02,-6.19397478e-02,-1.49805877e-02
,1.38352099e-01,8.97255539e-02,1.43184849e-01,1.80468149e-01
,1.67281402e-01,-9.99359006e-03,-1.84009983e-01,-1.49866491e-01
,-1.08588915e-01,1.50243073e-02,-2.53822183e-02,-3.26807149e-02
,-5.63959572e-02,-6.05613480e-02,3.50562726e-02,-9.10595163e-04
,6.41243868e-03,-4.14763455e-02,-2.10798834e-02,4.96990639e-02
,-4.12096187e-02,-3.73264946e-02,-3.65620689e-02,-3.75286294e-02
,-8.31434898e-03,-5.65656531e-02,-7.61585331e-02,-4.14567018e-02
,3.25590485e-02,6.32263053e-02,1.68606652e-01,1.85904906e-01
,-2.80615123e-02,-1.49794993e-01,-9.44502159e-02,-1.17998472e-01
,-1.67759799e-01,-5.50289966e-02,-1.30859990e-01,-5.83717860e-02
,-2.47144901e-02,2.77414942e-02,3.78247471e-02,-1.07063107e-01
,-6.17617755e-02,-3.11746115e-02,-4.44739589e-02,2.72535523e-02
,3.14797352e-02,-3.17432741e-02,-4.24318395e-02,-5.48026105e-03
,-3.49383112e-02,-1.47751094e-01,-1.39240143e-01,-1.10290448e-01
,-7.16659850e-02,-6.83998533e-02,-6.01358047e-02,-4.20585267e-02
,-6.35982656e-02,-6.18672112e-02,-3.44288752e-02,-8.97066891e-02
,-1.46961353e-01,-5.72191681e-02,-1.87337590e-02,4.21071217e-02
,-6.27811823e-02,3.86206872e-02,-4.37533552e-02,-2.43087498e-02
,-1.84797600e-03,-3.01707361e-02,-2.22112011e-02,-6.58753521e-03
,-2.58633380e-02,4.92212213e-02,-2.99564904e-02,8.12273057e-03
,-3.54583602e-02,-1.23868574e-01,-2.03687912e-01,-2.39548627e-01
,-1.43202829e-01,-1.96528326e-01,-2.22251214e-01,-2.76855474e-01
,-1.85053701e-01,-5.74227514e-02,-7.18677294e-02,-4.57698711e-02
,-4.84907525e-02,-1.38535155e-01,-1.55894481e-01,-8.72366896e-03
,-6.56486964e-02,-1.14043411e-01,-1.31015055e-02,-4.00531095e-02
,4.81246361e-02,-4.19463317e-03,-4.60732736e-02,-2.01225006e-02
,-4.70459926e-02,-4.03392155e-02,-3.81039976e-02,-5.78772158e-02
,9.58264766e-03,-9.92395254e-02,-1.26282485e-01,-1.25415785e-01
,-1.89978452e-01,-2.31351288e-01,-2.15681380e-01,-2.58014946e-01
,-1.69832856e-01,-1.71867128e-01,-1.65949384e-01,-1.00316631e-03
,-9.35123074e-03,-1.85635813e-01,-1.12319993e-01,-1.52012506e-01
,-5.26741399e-02,-3.25787900e-02,-7.45631575e-02,-3.00358241e-02
,4.37965745e-02,-2.27402430e-02,3.08219475e-02,9.89892249e-03
,3.79819430e-02,1.96459384e-02,2.32774707e-02,-1.49931003e-02
,8.05097477e-03,-9.97192534e-02,-6.19252426e-02,-1.92919976e-01
,-1.62841718e-01,-2.28018522e-01,-2.56600610e-01,-2.16348350e-01
,-1.50828915e-01,-2.02661406e-01,-6.92520881e-02,-1.90195617e-01
,-1.55943128e-01,-1.55045686e-01,-2.21892635e-01,-2.34417716e-01
,-8.38988748e-02,-1.19681355e-01,-2.07517404e-02,-3.14055214e-02
,4.70590660e-03,-1.99740344e-02,-4.19085266e-03,-3.76334586e-03
,3.48124223e-02,-2.42123502e-02,1.29858830e-02,4.45348599e-02
,-5.81436302e-03,-5.17380866e-02,-4.57401540e-02,-9.29523165e-02
,-1.01893641e-01,-2.72898546e-01,-1.90614076e-01,-8.69944731e-02
,-1.64793751e-01,-1.08923047e-01,-1.05946822e-01,-1.23537800e-01
,-2.01505690e-01,-1.75913672e-01,-2.29677021e-01,-1.32957382e-01
,-7.70133981e-02,-6.91451802e-02,5.69452041e-03,6.51498220e-02
,6.27912285e-03,-3.75504964e-02,1.27319060e-02,7.40204943e-03
,1.64259946e-03,-3.85000695e-02,-4.22598452e-02,-2.70317920e-02
,-6.50503718e-03,5.69042662e-02,6.57593530e-02,1.90324714e-03
,-4.55178654e-03,-1.03053036e-01,-9.03411786e-02,-1.00761277e-01
,-1.19761463e-01,-1.15580180e-01,-1.60490201e-01,-9.68508126e-02
,-6.74853216e-02,-3.47126767e-02,-4.80133990e-02,-1.00755105e-01
,-3.63792924e-02,3.53191988e-02,3.66577976e-02,4.08406163e-02
,2.51222898e-02,-2.62618279e-02,-2.88623930e-02,2.68891459e-02
,-3.17151842e-02,-4.25699273e-04,2.73416911e-02,4.58589198e-02
,3.47584628e-02,1.15487821e-02,6.64823891e-02,3.79759942e-02
,6.43001639e-02,6.73975298e-02,1.03655174e-01,4.22801348e-02
,1.00494216e-01,4.89572003e-02,1.28197324e-01,8.94343768e-02
,1.33419863e-01,8.73749292e-02,7.39583320e-02,1.95755999e-01
,9.95637731e-02,1.01046188e-01,7.13793646e-02,-4.22996991e-02
,-4.80507467e-02,-3.80297585e-02,2.11791536e-02,-4.01001196e-05
,-1.33273000e-02,-4.30611598e-02,-2.89756764e-03,1.49705166e-02
,1.29894005e-02,5.82335606e-03,5.12286157e-03,6.71619378e-02
,9.67915427e-02,6.81232001e-02,1.10219492e-01,1.11917973e-01
,1.46576291e-01,2.23756792e-01,3.08574714e-01,1.94548501e-01
,1.10654816e-01,1.84555085e-01,1.96193950e-01,1.33668397e-01
,4.86564183e-02,6.29796587e-02,-7.07107288e-03,9.05103093e-03
,5.34298589e-03,1.45105375e-02,-1.56009062e-02,-8.65462766e-03
,-4.35832705e-04,-3.65602707e-02,4.09672306e-02,-3.66759798e-02
,-9.86779010e-03,-2.08816505e-02,-3.68420566e-02,-1.99712800e-02
,4.06896396e-02,-4.12655223e-02,4.10666460e-03,-1.74558281e-02
,5.22981340e-02,-8.59342007e-03,1.22579966e-02,-1.69676762e-02
,3.80762345e-02,6.23338789e-03,7.28688652e-02,-1.76078502e-02
,-1.78992045e-02,4.17530615e-02,1.87708587e-02,3.41455079e-03
,-3.55200845e-02,-3.04175860e-02,4.35151673e-02,3.59686991e-02},
{-3.42588129e-02,4.31183087e-02,5.91891784e-03,-4.71386265e-02
,2.42479594e-02,1.53786734e-03,-4.29704872e-02,3.93567825e-02
,1.84423469e-03,3.45094430e-02,-5.70624507e-04,-1.49646521e-02
,2.70007392e-02,-3.05007326e-02,-2.46446486e-02,-4.46371803e-02
,3.13259314e-02,-1.49665538e-02,-1.74022490e-02,-1.01946750e-02
,1.72996043e-02,-5.72137822e-03,2.91589943e-02,1.96413713e-02
,-3.99388631e-02,-3.06720255e-02,2.42898352e-02,3.90762423e-02
,3.49165193e-03,-1.23655025e-02,1.77186764e-02,-2.38353806e-02
,-2.51977348e-02,2.26362655e-02,3.68080194e-03,-2.93873929e-02
,-1.34782669e-02,-1.64018208e-03,-3.76482579e-04,4.63728921e-02
,3.82870653e-02,1.75024655e-02,-1.39945809e-02,-4.04853929e-02
,4.92293823e-02,5.43501831e-03,2.51883475e-02,3.48154742e-02
,4.65775471e-02,3.67394896e-02,-1.59533907e-02,7.74428291e-04
,-3.76466030e-02,3.42434316e-02,1.45633162e-02,-4.00282824e-02
,2.68269293e-02,1.81297750e-02,-1.86732180e-02,1.91538424e-02
,9.79677117e-03,1.03648051e-02,3.38190051e-02,2.14559376e-02
,-2.05683827e-02,-2.62633772e-03,4.64655060e-02,4.67219852e-03
,3.46452720e-02,-2.84750315e-02,1.82364571e-02,5.24468435e-02
,-2.60799331e-02,2.07143332e-02,4.01702749e-03,-6.36061798e-03
,2.49257553e-03,6.61242831e-03,1.97738970e-03,2.96250997e-03
,1.95106828e-02,3.54402788e-02,1.46043060e-02,1.00866060e-02
,4.13977630e-02,1.03584711e-02,2.76074879e-02,-2.96062268e-02
,-2.92532171e-02,-2.56440065e-02,-2.36043092e-02,-9.01182739e-03
,9.65726508e-03,6.86624961e-02,2.85684927e-04,7.65797553e-02
,5.47230501e-02,1.20894207e-01,8.81433359e-02,1.03890668e-01
,5.57334929e-02,7.88735860e-02,1.91273534e-02,-1.64683786e-02
,5.33593865e-02,1.72954070e-03,1.98204585e-02,-4.38892996e-02
,-2.29011941e-02,-1.40809509e-02,2.81263854e-02,-4.17465297e-02
,-3.69583961e-02,-3.50656819e-02,9.94750310e-03,-4.03087826e-02
,2.13608893e-02,4.31646699e-02,8.22404303e-03,1.46489647e-02
,5.54007150e-02,1.02492065e-01,1.18209447e-01,1.52114567e-01
,1.59808931e-01,1.04585564e-01,9.67483246e-02,8.05812856e-02
,5.78962174e-02,8.34606551e-02,6.19280773e-03,1.01593298e-02
,-5.18334349e-02,-2.31864679e-02,-4.09852823e-02,-1.22056476e-02
,-1.74239674e-02,4.92892431e-02,-6.89387439e-03,-4.37988910e-02
,4.68944481e-02,1.61239876e-03,4.16111115e-02,-9.46726684e-03
,3.81394109e-02,-7.78254449e-03,3.98490919e-02,2.15557319e-02
,8.93354183e-02,1.39912956e-01,1.83114774e-01,2.39652131e-01
,1.57458757e-01,1.37983295e-01,1.21362038e-01,9.66384624e-02
,1.29335830e-01,8.20123387e-02,6.27882137e-02,-3.97063740e-02
,2.16207707e-03,-3.09887316e-02,-1.08211541e-01,-4.73055264e-02
,1.37217176e-02,-3.20768199e-02,1.97889225e-02,4.30289095e-02
,-4.61257805e-02,2.42429927e-02,5.20671337e-03,-4.88783494e-03
,6.60294439e-03,3.83294277e-02,1.00580274e-01,1.15527827e-01
,1.14109983e-01,2.00675529e-01,2.43796429e-01,1.38455313e-01
,8.02620288e-02,1.11545352e-01,-8.56398559e-03,4.06672195e-02
,4.70384312e-02,-2.83679009e-02,-9.06852403e-02,1.60980081e-02
,-4.67679507e-02,-8.67441175e-02,-6.66500929e-02,-8.28770471e-02
,-7.17676176e-02,2.93769152e-02,1.33625699e-02,-3.21718234e-02
,1.24767463e-02,-1.41723300e-02,2.73385185e-02,-2.26470917e-02
,2.36836427e-02,5.18462167e-02,1.07098137e-01,8.88363877e-02
,1.73015405e-01,1.30583482e-01,1.36910518e-01,1.55139417e-01
,6.28641046e-02,-4.03462548e-02,-4.95266040e-02,2.22975032e-02
,3.44884882e-02,9.16957443e-03,-4.79282984e-02,-1.10988825e-01
,-5.60533423e-02,-1.50600156e-02,-8.01663009e-02,-1.68753813e-02
,3.28326771e-05,7.49725583e-03,-1.88990399e-02,-3.26867348e-03
,-2.08687487e-02,1.95443124e-02,5.19190644e-02,9.68688395e-03
,4.20405480e-02,-1.34041157e-02,5.02459654e-02,1.16799320e-01
,8.38591253e-02,1.77512429e-01,1.58353646e-01,3.93569417e-02
,-3.63558244e-03,-9.46636964e-02,-1.20785673e-01,-3.22931695e-02
,7.88063682e-02,1.89141757e-02,1.71134232e-04,-7.48025453e-02
,8.91258441e-02,-9.66721626e-04,-2.11423393e-02,-9.06141548e-03
,-6.24796835e-02,-5.76139064e-02,-4.59820157e-02,-3.21991894e-02
,-2.51123471e-02,-2.95195131e-02,-2.14656097e-02,-1.52458518e-02
,6.85364439e-02,5.79188892e-02,5.97330418e-02,1.27721436e-01
,1.09799756e-01,1.94390698e-01,5.31750173e-02,3.70779313e-03
,-3.78104833e-02,-1.99194431e-01,-1.32865544e-01,-4.86117618e-02
,1.71930074e-02,1.46506833e-03,-2.98757567e-04,-1.83423190e-03
,9.26060855e-02,7.50154429e-02,8.36402022e-02,2.56481676e-03
,7.01879311e-03,3.91608392e-02,3.70656110e-03,1.18079998e-02
,4.70972874e-02,3.41116219e-02,-2.58139111e-02,1.32648221e-02
,4.99580076e-02,9.15877275e-02,1.35341657e-01,1.36234451e-01
,1.56230962e-01,9.22594314e-02,1.97496356e-02,1.42412901e-02
,-8.83196285e-02,-1.40032678e-01,-1.29428457e-01,-1.00534641e-01
,-8.56990868e-03,4.79446462e-02,-1.94706890e-02,2.85217578e-02
,1.40930124e-01,1.17784563e-01,6.84477095e-02,9.69141600e-02
,5.98481554e-02,-1.98204139e-02,2.62883853e-02,-3.33725099e-02
,3.73614535e-02,-3.64573024e-02,1.61809023e-02,2.69631071e-02
,-3.25972817e-02,-6.97894026e-03,8.66482148e-02,2.00730888e-01
,1.30641740e-01,1.55254554e-02,-1.85600163e-02,-6.49362442e-02
,-1.08086625e-01,-8.79013522e-02,-8.67976387e-02,-4.50542132e-02
,-3.10872733e-02,4.72487047e-02,3.30033684e-02,1.26559471e-01
,1.06681760e-01,1.12160791e-01,1.17963294e-01,7.33019045e-02
,4.09122580e-02,7.25426175e-03,9.18076455e-03,1.13323285e-02
,9.84180201e-03,-2.87436398e-03,3.26940760e-02,2.14340348e-02
,3.47720138e-02,4.11138395e-02,1.28655108e-01,3.85363477e-02
,9.37282746e-02,1.41611292e-02,-8.35452604e-02,-7.17056643e-02
,-9.85629786e-02,-1.30459665e-01,-9.45713556e-02,-8.99984355e-02
,-8.40228658e-02,-2.80471813e-02,5.83210778e-02,1.71975804e-01
,1.22125450e-01,2.97277653e-02,1.18152418e-01,3.62357357e-02
,-1.03462810e-02,6.55382970e-03,4.53171632e-02,-5.19070228e-03
,-3.53973070e-02,-3.15198456e-02,-4.59382954e-04,-4.59787358e-02
,1.03430301e-02,4.16386791e-02,6.59558771e-02,3.09798449e-02
,6.82102941e-02,-9.66715431e-02,-7.53642148e-02,-6.65525734e-02
,-1.11352894e-01,-1.44731895e-01,-1.25642543e-01,-1.74531431e-01
,-6.07509482e-02,1.06428098e-02,1.28191761e-01,1.04716747e-01
,3.34620572e-02,1.22509234e-01,1.47004954e-01,1.14852600e-01
,1.17181432e-01,7.39672228e-02,1.86798407e-02,-3.08759278e-02
,4.56984239e-03,-2.32011884e-03,-2.42970088e-03,-3.35027426e-02
,-1.83918959e-02,5.61143351e-03,5.74706513e-02,1.02355497e-01
,5.38315390e-02,-6.52008568e-02,3.08483477e-02,-1.71774421e-02
,-1.56567544e-01,-1.34206087e-01,-1.66257850e-01,-9.67276625e-02
,-5.43867876e-02,1.75682780e-01,2.07764365e-01,1.21534800e-01
,1.04784050e-01,1.41999254e-01,7.95070576e-02,8.65145951e-02
,1.18234607e-01,3.67204557e-02,3.07925398e-02,2.29561926e-02
,-2.28749719e-02,-7.50306607e-03,2.43230554e-02,2.73977515e-02
,7.01203243e-03,2.71304782e-02,1.60945331e-01,1.35160610e-01
,9.46158920e-02,6.09131460e-02,3.13045008e-02,-3.35794563e-02
,-4.30592136e-02,-9.98459273e-02,-1.40662860e-01,-1.45405679e-01
,-3.95884758e-02,2.36627375e-01,2.15320820e-01,1.89302533e-01
,2.08844838e-01,1.21964593e-01,4.66241023e-02,1.01125173e-01
,1.19656080e-01,7.53975222e-02,-5.56282482e-03,1.64500963e-02
,-2.59728887e-03,-4.03128424e-02,3.54721241e-02,2.74648065e-02
,1.17147803e-03,7.55931793e-02,1.38568750e-01,1.75451104e-01
,1.66455748e-01,1.12273795e-01,1.46629876e-02,-2.99013209e-03
,-1.55882224e-02,-1.07084766e-01,-1.04578330e-01,-7.20038380e-02
,6.98759446e-02,3.33382543e-01,3.26584241e-01,2.48404608e-01
,1.66267881e-01,1.45086513e-01,1.39289633e-01,1.03943388e-01
,1.15520386e-01,2.87567803e-02,-1.52838689e-02,2.50828217e-02
,4.33744317e-02,4.63712878e-02,1.90450108e-02,-1.61965754e-02
,6.64869857e-02,7.13344288e-02,1.64748558e-01,1.53117830e-01
,1.00970573e-01,1.43098935e-01,2.86141642e-02,5.86657968e-02
,1.63287181e-02,-6.14519068e-02,-1.02104639e-01,1.44873190e-02
,2.23390888e-01,3.65442954e-01,2.83297922e-01,2.58345306e-01
,2.09964034e-01,1.70936029e-01,6.53557126e-02,4.90007355e-02
,3.88016934e-02,2.24185581e-02,5.77541521e-03,1.32187676e-02
,4.69021066e-02,1.39807469e-02,4.67559010e-02,2.55674762e-02
,6.18738070e-02,7.25702685e-02,1.66628456e-01,1.74271619e-01
,1.46037878e-01,1.25547336e-01,1.14225713e-01,2.21522279e-02
,8.62875106e-03,-6.34692597e-02,-8.83232709e-02,1.40083978e-01
,3.74346111e-01,3.89342694e-01,2.64951050e-01,2.16146415e-01
,1.50733408e-01,1.83229071e-01,1.21958811e-01,7.66292424e-02
,6.09048749e-03,1.81072180e-02,1.04705891e-02,2.81436686e-02
,3.70322998e-02,3.61419532e-02,2.06251196e-02,-1.98663963e-02
,8.29433732e-02,1.53487462e-01,1.07244065e-01,2.04233004e-01
,1.47344558e-01,1.61596941e-01,1.50802578e-01,1.26067191e-01
,1.25121574e-01,2.85871952e-02,3.54074915e-03,1.81584565e-01
,2.46646732e-01,2.44246671e-01,2.67076805e-01,1.92339653e-01
,9.98230937e-02,1.87987262e-01,1.46052656e-01,7.24356836e-02
,4.84574771e-02,3.88579125e-02,-2.78869528e-02,4.20666464e-02
,4.01321737e-02,-4.60109691e-02,1.05042528e-02,3.39483794e-02
,9.51482317e-02,1.23901729e-01,6.22835065e-02,1.45271844e-01
,1.16632322e-01,1.21615205e-01,1.09397613e-01,7.23045930e-02
,9.20475160e-02,9.06255037e-02,3.26181774e-02,1.51185393e-01
,1.07247321e-01,1.75598053e-01,1.37955601e-01,9.61425564e-02
,7.85126073e-02,8.85334232e-02,9.74615980e-02,5.15177245e-02
,-9.49038830e-03,-2.87655462e-02,-1.26364274e-02,-4.60643765e-02
,-2.05151897e-02,-4.76453907e-02,-1.69426356e-02,3.85568881e-02
,5.98832974e-02,3.24511197e-02,9.19683948e-03,-2.34810690e-02
,-6.59127913e-03,1.48922083e-02,1.47448542e-02,1.15350338e-01
,1.44716969e-01,1.35891071e-01,1.09928894e-01,8.64500267e-02
,1.25707530e-01,8.52691420e-02,1.20982212e-01,5.74094006e-02
,3.36255616e-02,6.88737152e-03,3.03698453e-02,5.63353748e-02
,2.70915078e-02,4.92205266e-02,-1.70512763e-02,-4.26112485e-02
,-3.11522101e-03,2.73898708e-02,8.94345691e-03,-1.78513579e-03
,3.23886768e-02,-3.84275858e-02,-4.53718687e-02,-5.01653852e-02
,-9.68984402e-02,-8.92566230e-02,-2.56383256e-02,9.51661200e-02
,9.37917960e-02,1.68025327e-02,-3.73258439e-02,9.24560444e-02
,7.48896517e-02,9.12297969e-03,6.88921348e-02,7.75689262e-02
,2.50961136e-02,1.42296363e-02,2.50269553e-02,3.70665575e-02
,-3.61454496e-02,-3.17831941e-02,-4.65502956e-02,-4.79684660e-02
,3.31605596e-02,-2.75840778e-02,-3.82209330e-02,1.73390150e-02
,1.05629901e-02,2.62668728e-02,-1.01519971e-02,-8.68419665e-02
,-1.37499684e-01,-8.75588483e-02,-1.15320693e-01,-1.39633362e-02
,-5.61511036e-02,-5.28679556e-02,-1.16519791e-02,7.85867334e-02
,4.34069252e-02,-7.63443120e-03,3.56108853e-02,2.08079811e-02
,1.37264889e-02,3.18084291e-03,4.74000401e-02,4.78601175e-02
,-6.04412724e-03,4.05883432e-02,1.93693472e-02,1.58358462e-02
,3.07719077e-02,-4.05643178e-02,4.14921070e-02,-3.57110690e-02
,5.96276790e-02,1.91875756e-03,-3.36729248e-02,-3.32422209e-02
,-6.39763370e-02,-2.89862122e-02,1.00311371e-02,8.48184165e-02
,1.62825508e-01,1.01557957e-01,1.49715232e-01,1.09059827e-01
,5.87583527e-02,5.22657457e-02,4.09331275e-02,-4.86862376e-03
,6.87088474e-02,-9.26277066e-03,-4.86025799e-02,1.36822964e-02
,1.62493205e-02,3.63860334e-02,-2.73756326e-02,-1.26783406e-02
,-2.89654325e-02,-4.22064391e-02,-1.03331235e-02,-1.35316704e-02
,4.26772731e-02,-1.44293583e-02,-1.39519613e-02,-7.09640432e-03
,9.21877200e-03,5.16619838e-02,7.48927189e-03,4.45712806e-02
,5.10976908e-02,1.05420472e-01,1.57934629e-02,6.67786455e-02
,4.98786328e-02,5.84279499e-02,4.53984890e-02,-3.29411633e-02
,-3.83344155e-02,1.09333737e-03,-3.74376391e-02,3.60971075e-02
,4.52222922e-02,1.02992769e-04,4.80001442e-02,-3.69153276e-02
,4.48575855e-02,4.66833893e-04,1.27178701e-02,1.97489527e-03
,5.15372477e-03,-2.13123024e-02,3.21697998e-02,-4.87583620e-02
,-2.19935474e-02,-1.12902281e-02,1.29863187e-03,-1.79227578e-02
,4.15443080e-02,2.32636308e-02,4.59313720e-03,1.56706240e-02
,3.52544458e-02,1.09477180e-02,-4.57775522e-02,9.72670131e-03
,3.30399811e-02,-4.88927230e-02,2.86523061e-02,-2.37840136e-02
,-3.56480726e-02,2.82797585e-02,6.87848650e-03,-1.97833466e-02
,-3.87727487e-02,4.25855215e-03,7.10602364e-03,2.46557258e-02
,-1.51593515e-02,-2.27987610e-02,-3.17269277e-02,4.36516752e-02
,2.62843880e-02,-3.53436453e-02,4.83387052e-03,2.42678509e-02
,2.99046201e-02,-3.20687256e-02,3.88595373e-02,-2.01209736e-02
,-1.30842649e-02,-2.48922325e-02,4.11609124e-02,2.72926503e-03
,2.91701780e-02,1.87424980e-02,-1.11782942e-02,-3.05674850e-02
,1.61153659e-02,3.82370291e-02,-2.57911418e-02,-4.77241981e-02},
{-3.95363870e-02,8.39440166e-03,-4.66832199e-02,-2.57624667e-02
,3.47504922e-02,-2.21694468e-03,8.25933925e-04,4.75175165e-02
,-3.15467441e-02,-2.95762999e-02,-3.56742612e-02,1.69693402e-02
,-8.89838488e-03,-3.40867806e-03,3.96621684e-02,-4.16788495e-02
,4.38147404e-02,9.27404664e-03,3.05960235e-02,-3.72613006e-03
,3.08474166e-04,2.32383815e-02,4.20134334e-02,-3.75912366e-04
,1.78168520e-02,3.45415320e-02,2.43515419e-02,3.43135899e-03
,3.88693070e-02,1.15448679e-02,-4.71903441e-02,-4.03367173e-02
,-3.04044352e-02,-2.98292005e-02,2.65340976e-02,-7.08628809e-04
,1.50317499e-02,-4.55722256e-02,3.88910411e-02,8.65250796e-03
,-4.32242241e-02,-1.81362509e-02,3.65968750e-02,-3.05081265e-02
,2.27805287e-02,-6.96403300e-03,4.61976358e-02,2.95673482e-02
,5.88278011e-04,-1.06126811e-02,1.73099846e-02,-1.45915664e-02
,3.01107785e-03,-3.71080189e-02,-3.97636668e-02,1.50702164e-02
,4.66693957e-02,1.36497116e-02,-4.61475039e-02,2.06719005e-02
,4.56209309e-02,-5.54074978e-03,-3.46976779e-02,-3.52195101e-02
,-4.10309085e-02,5.20738679e-03,4.00419920e-02,-7.66255568e-03
,-2.11917292e-02,-1.66066893e-02,-2.22009179e-02,-1.19646605e-02
,-9.75451955e-03,6.30579124e-02,2.03487110e-02,5.70998337e-02
,3.32941567e-02,8.98810602e-03,3.46715847e-03,2.99065264e-02
,4.37720299e-02,8.77170653e-03,1.46483786e-03,-3.84101117e-02
,9.44455776e-03,-3.08268842e-02,-1.37934755e-02,2.37908415e-02
,1.04147626e-02,-3.28098767e-02,4.39237110e-02,-4.82053565e-03
,-1.96984270e-03,-1.61683650e-02,-7.16246741e-02,-1.00789165e-01
,-1.24702718e-01,-1.28884753e-01,-1.87404573e-01,-5.58561245e-02
,-1.23069761e-01,-1.18121492e-01,4.81847855e-03,1.25116995e-02
,9.34323734e-03,2.94117880e-02,2.50020082e-02,6.75449100e-03
,2.02794647e-02,4.00864740e-02,2.46475111e-02,6.10326047e-03
,-3.77422442e-02,2.20148870e-03,1.29189815e-02,-4.06871124e-02
,2.00914192e-02,-2.93072592e-02,-1.57569733e-02,-5.56378652e-02
,-2.61648117e-02,-1.04616358e-01,-1.44407203e-01,-1.45959939e-01
,-1.98344345e-01,-1.22078361e-01,-1.25050834e-01,-1.92920052e-01
,-1.53270671e-01,-5.63261297e-02,-1.27048479e-01,1.75433511e-02
,8.14441516e-02,8.53999312e-02,1.38101465e-01,9.24097925e-02
,6.99194435e-03,2.85073535e-02,-3.38573924e-02,-2.53784369e-02
,-4.27106098e-02,-9.09742030e-03,1.22394260e-02,-3.42783170e-02
,-4.03824402e-03,3.35538189e-02,-8.49849578e-03,2.13862628e-02
,-1.90809639e-02,-2.24065050e-02,-1.56125611e-02,-6.11629751e-02
,-5.34519109e-02,6.20277984e-03,4.18178347e-02,-8.21109726e-02
,-1.23023784e-01,-9.05101929e-02,-6.96081696e-02,-7.94424196e-02
,-7.22725860e-02,2.67379248e-03,-1.51713257e-02,5.27889256e-02
,1.90043898e-02,2.71860425e-03,4.09250807e-02,-3.97546721e-02
,3.53776939e-04,-3.09342365e-02,3.23669738e-03,-4.15907743e-02
,1.61720825e-02,-3.20940279e-03,4.50291037e-02,1.31187838e-02
,1.07036619e-01,2.15282889e-02,-2.06793203e-03,-2.76834885e-02
,-2.18811561e-02,-1.14046761e-01,-3.69043759e-02,-4.94003236e-02
,-5.43496352e-02,-6.65426875e-02,-3.23210856e-02,-1.11598711e-02
,-1.68198275e-02,-4.49299618e-02,-8.19034823e-02,3.80711797e-02
,3.35040619e-02,-3.12676699e-02,-2.93675573e-02,3.82990898e-02
,-3.25999930e-02,-7.63658590e-03,4.05470707e-03,-1.82980972e-02
,-4.72883320e-02,-6.71920843e-02,1.51827428e-03,8.55309353e-02
,7.79653384e-02,-1.09363221e-02,-1.20418034e-02,-2.23205003e-02
,-4.76650235e-02,2.01714097e-03,-1.37810500e-01,-9.53415801e-02
,-6.54252627e-02,2.63647647e-02,-1.35957402e-02,-3.24634287e-02
,-4.67089614e-02,-6.77747372e-02,-8.81649042e-02,-1.62476019e-02
,-8.42322839e-03,6.66773048e-03,2.54000094e-02,-4.34667985e-02
,-2.23608817e-02,-1.60588050e-02,-4.20446999e-02,-5.60361017e-02
,-6.48062051e-02,3.51779269e-04,7.51530321e-02,9.49557392e-02
,2.85741272e-02,3.18819836e-02,-6.42249492e-02,2.69330102e-02
,3.92270337e-02,9.70416722e-02,9.06284553e-02,3.56342280e-02
,4.31107865e-03,-2.57511399e-02,1.75392455e-02,-6.44460258e-02
,-9.92802345e-02,-1.33211401e-01,-1.68040631e-01,-6.76893961e-02
,1.37811266e-02,-5.09326571e-02,5.73194338e-03,4.62052970e-02
,4.23120203e-02,5.12877398e-03,-1.87229076e-02,-2.85182166e-02
,1.13612384e-02,9.77408819e-02,8.26987013e-02,1.25489996e-01
,1.69391886e-01,1.05987370e-01,1.51824478e-01,1.56155566e-01
,3.16602144e-01,4.36846022e-01,3.57337669e-01,2.33903953e-01
,3.64217486e-02,8.68828687e-03,-2.46164687e-02,-8.83300399e-03
,-1.01615456e-01,-1.07481502e-01,-2.10019095e-01,-1.30656234e-01
,-2.63600306e-02,8.30892161e-03,1.84382185e-02,-2.23328910e-02
,-7.44393071e-03,4.26345217e-02,6.60396977e-03,2.02089732e-02
,7.17861020e-02,1.25904616e-01,1.45688594e-01,2.66438974e-01
,2.44424049e-01,3.56598072e-01,4.52626554e-01,4.80516810e-01
,5.05526461e-01,5.65202962e-01,3.94440632e-01,2.66016987e-01
,4.11803226e-02,-6.22846510e-03,5.89909231e-02,6.66048433e-02
,-9.14667783e-02,-1.05740464e-01,-8.86124774e-02,-7.97760968e-02
,-3.87509988e-02,-6.12747752e-02,-3.13717109e-02,-3.69242416e-02
,2.82893214e-02,-1.82648183e-02,2.06326653e-03,2.23630122e-02
,6.26444421e-02,2.38430898e-01,2.94897082e-01,2.88938721e-01
,3.43793909e-01,4.51140850e-01,4.42152489e-01,3.03279622e-01
,3.42551000e-01,1.95843444e-01,1.04502316e-01,1.32612590e-01
,5.80240450e-02,3.23292385e-02,9.19377588e-02,-8.44589171e-03
,-1.14983993e-01,-8.10017169e-02,-3.22060045e-02,1.93851472e-02
,4.95755506e-02,1.85827672e-02,5.69801451e-03,4.33930752e-02
,1.59112457e-02,3.90968556e-02,1.50551642e-02,-1.20503242e-02
,7.98782248e-02,1.89239847e-01,2.55322496e-01,2.41340828e-01
,2.04646591e-01,2.20745820e-01,9.26737446e-02,1.55405158e-02
,-7.47198562e-02,-9.99789175e-02,-1.23644825e-01,-1.89296393e-02
,6.58775234e-02,2.18726396e-01,1.55135091e-01,-6.31771235e-03
,-1.93166861e-02,4.15804006e-02,6.78236260e-02,1.30135222e-01
,4.37618388e-02,-3.32413165e-02,-1.95319588e-02,-2.26910654e-02
,-3.69984619e-02,-4.71257889e-04,3.39069251e-02,-4.51914518e-02
,1.03621177e-01,1.10019395e-01,1.25383333e-01,2.39815849e-02
,-1.01724190e-01,-8.81648059e-02,-1.03851781e-01,-2.97885355e-01
,-2.96615393e-01,-3.40477882e-01,-1.78197055e-01,-3.06746826e-03
,1.07538382e-01,2.22113842e-01,1.03032800e-01,7.47978811e-02
,3.15463118e-02,4.99497200e-04,3.77851502e-02,9.36373347e-02
,1.51586321e-02,-5.37945246e-02,-4.90718127e-02,3.67864609e-02
,-1.55503895e-02,-4.64225322e-02,1.17353578e-02,-3.38140640e-02
,2.91626935e-02,3.57861922e-02,-7.62381871e-02,-1.66599257e-01
,-1.75670736e-01,-2.25856452e-01,-2.70537736e-01,-2.40222666e-01
,-2.77535221e-01,-2.53082031e-01,-2.14593714e-01,-5.44559383e-02
,2.34699706e-02,4.26968590e-02,4.34191403e-02,1.30622042e-01
,8.94230618e-02,8.65571132e-03,6.75039284e-02,6.11619412e-02
,-1.83364427e-02,-2.55775851e-02,-3.87540167e-02,6.98998826e-03
,-5.68426876e-03,-4.86624680e-03,-5.38349004e-03,-5.55565697e-02
,-9.02591351e-02,-9.83109156e-02,-1.57959999e-01,-1.81649756e-01
,-1.06229088e-01,-2.32847717e-01,-2.24363320e-01,-1.28038351e-01
,-5.62644193e-02,-6.00858576e-02,1.55153522e-03,1.92700463e-02
,-7.16139233e-02,-3.06595796e-02,-2.60280682e-02,8.00810997e-02
,5.69208851e-02,6.55333465e-03,8.80017897e-02,-3.47164536e-02
,-4.27192374e-02,-7.24875031e-02,-3.17719834e-02,3.32862665e-02
,4.00842422e-02,-3.23281581e-02,-1.18480451e-02,-4.23029572e-02
,-1.20268109e-01,-1.59765942e-01,-1.71038380e-01,-1.31024325e-01
,-8.92311948e-02,-9.89929474e-02,-7.28546008e-02,-1.97346566e-02
,-2.01886834e-02,5.82815429e-02,1.12572712e-02,-2.67728728e-02
,-7.30741106e-02,-2.06337000e-01,-7.15132459e-02,3.57467668e-02
,4.97471708e-02,4.73496034e-02,8.29605441e-03,-1.67548828e-02
,-3.73649472e-02,-6.06593193e-02,4.77857558e-03,2.87606525e-02
,1.40361395e-02,-8.08974057e-04,2.36308711e-02,-3.63280971e-02
,-1.87465573e-01,-1.65857610e-01,-1.62136809e-01,-9.16401304e-02
,5.05142513e-02,7.51958494e-02,1.94015381e-01,1.35106586e-01
,1.76052806e-01,1.10761361e-01,1.28131440e-01,-3.69778465e-02
,-1.50150698e-01,-1.58008887e-01,-2.25609718e-02,1.78220263e-02
,1.06600235e-01,1.01049092e-01,3.50032570e-02,8.05063251e-02
,1.27525686e-02,-7.56455218e-02,2.43357936e-02,2.22850273e-02
,-1.06465043e-02,3.47661005e-02,-2.54366341e-02,-1.00524342e-01
,-1.24215153e-01,-1.57417755e-01,-9.04432476e-02,-2.76247113e-02
,-1.74881242e-02,8.20793562e-02,1.50642331e-01,1.22424882e-01
,2.08366283e-01,3.74557464e-02,1.88328931e-02,-2.78341332e-02
,-9.17743682e-02,-5.76248927e-02,1.62489298e-02,2.87532802e-02
,1.04659376e-01,7.49800081e-02,1.61681441e-02,2.58819404e-02
,7.15620968e-03,-4.87014714e-02,-1.25016554e-03,3.39884353e-02
,2.59148525e-04,4.51530735e-02,9.49940440e-03,-3.06610474e-02
,-1.42136281e-01,-1.53053508e-01,-7.69803301e-02,-3.30804173e-02
,1.31285345e-02,4.48925584e-02,1.38259549e-02,8.69264517e-02
,3.18859699e-02,-7.56121212e-02,4.07362236e-02,-1.14524139e-02
,-2.78333308e-02,7.75660053e-03,-4.64579346e-03,1.84935133e-02
,6.82187497e-02,-1.13390430e-02,9.88138256e-03,3.50091504e-02
,2.40953982e-02,-4.57731733e-02,-1.78301376e-02,4.64101845e-02
,-3.64704380e-02,-1.51901913e-02,1.27025951e-02,-1.24464892e-01
,-1.27659059e-01,-8.61462719e-02,1.27141514e-02,2.33485823e-02
,1.81278610e-02,6.30801756e-02,5.67749616e-02,-4.39552571e-02
,-4.29553077e-03,-4.45992558e-02,9.88567646e-02,1.04043510e-01
,1.09260192e-01,9.58392165e-02,4.25818178e-02,1.05555046e-01
,1.79458380e-02,3.36439916e-02,1.37098671e-02,4.03969645e-02
,2.35102213e-03,-2.39251729e-02,-4.83415121e-02,1.70822555e-02
,4.85142363e-03,-1.53787267e-02,3.24851575e-02,-6.34378613e-02
,-4.43952934e-02,-2.41911799e-02,5.13619606e-02,6.41435139e-02
,1.78414107e-01,1.75260506e-01,9.52853563e-02,8.67531860e-02
,6.63615830e-02,1.00095245e-01,8.35040246e-02,9.29661196e-02
,9.07738788e-02,1.33434991e-01,1.00597594e-01,4.60872960e-02
,2.96755477e-02,-3.34293603e-02,3.16174599e-02,6.47180891e-03
,3.58736261e-02,-6.49332805e-03,1.76855428e-02,-1.26123255e-02
,1.04700222e-02,4.66725537e-02,-5.73536959e-02,-8.25156014e-02
,-4.40979290e-02,-6.91922502e-03,8.96612053e-02,1.03594143e-01
,7.37831145e-02,1.02410776e-01,1.25043858e-01,4.55859459e-03
,1.22605456e-01,6.65594346e-02,8.61046206e-02,6.19487754e-02
,4.79436381e-02,5.15994324e-02,4.62719371e-02,5.46903135e-02
,-1.98609840e-02,2.72161429e-02,-3.19100651e-02,1.89797541e-03
,-2.43018546e-02,-3.57555098e-02,3.26240858e-02,-4.78903753e-02
,-4.84839931e-02,-3.87970153e-02,-2.10283506e-02,-3.35564584e-02
,-4.34289219e-02,-4.89330868e-02,6.52994045e-03,4.42811151e-03
,4.32123449e-04,5.53299273e-02,7.43044056e-02,5.87152690e-02
,8.95245443e-02,6.07193019e-02,6.27748381e-02,-9.27433645e-03
,5.76724032e-02,3.41616390e-02,3.75623080e-02,-1.71544666e-02
,1.18305753e-03,3.13530873e-02,-4.05433189e-02,6.45888167e-03
,-4.11849342e-04,3.33842558e-02,3.65297067e-02,3.66797501e-02
,6.79052187e-03,1.29923353e-02,-3.01994505e-02,8.11473099e-05
,-8.69248113e-02,1.12153096e-02,3.38724337e-02,-8.61759123e-02
,-9.90682285e-02,-5.15446958e-02,-7.57664950e-02,-1.75668298e-02
,3.42702964e-02,5.02663001e-02,1.66018598e-02,-1.43549827e-02
,-4.40303356e-02,-3.61779085e-02,4.01496536e-03,2.97509420e-02
,-6.59134784e-03,-5.28645596e-02,6.65016211e-03,4.84779381e-02
,2.81774861e-02,-4.67460420e-02,-4.36826256e-02,-3.04607088e-02
,7.30573328e-03,-2.46654908e-02,-1.97370451e-02,-3.88072308e-02
,-5.16612426e-02,-1.08918523e-02,2.07711200e-02,-3.75520488e-02
,-6.96957628e-02,-1.21141298e-01,-1.51029553e-01,-9.70227036e-02
,-3.49614831e-02,-7.76820977e-03,-2.87086086e-02,7.26773706e-03
,1.15468449e-02,1.53972018e-02,-5.74392421e-03,-2.07941228e-02
,8.77327155e-03,2.62095620e-02,-1.89851229e-02,2.49221026e-02
,-2.88794634e-02,-2.12960958e-02,2.36726300e-02,-1.44254658e-02
,1.68619358e-02,-4.36885991e-02,1.10828069e-02,-1.20863513e-02
,-6.38093643e-03,-2.47753789e-02,5.30807324e-02,-2.81614594e-02
,3.05855146e-02,-1.37791987e-02,3.61994557e-02,3.49139642e-02
,2.01943860e-02,-3.83835570e-02,-5.06714206e-03,3.60208301e-02
,3.76013981e-02,3.83695915e-03,1.24630591e-02,-3.03834164e-02
,-1.69656915e-02,3.58165768e-02,-3.74678913e-02,-4.02989711e-02
,-5.63860264e-03,-4.09224705e-02,2.69670890e-03,2.16910527e-02
,1.00268730e-02,2.31596389e-02,6.49870077e-03,1.02341380e-02
,1.55073795e-02,9.08437047e-03,-4.54775417e-03,1.82696293e-02
,1.18801104e-02,1.33943794e-02,1.28911969e-02,2.23137902e-02
,-2.07335513e-02,-3.33083981e-02,3.98314464e-02,-4.23867557e-02
,2.94804834e-03,-1.51886992e-03,2.98496023e-02,1.21247680e-02
,-1.56675071e-02,-3.41340954e-02,-2.33654551e-02,-8.12833056e-03
,-3.93867696e-02,-3.37733479e-02,4.19800092e-02,-1.72053839e-02},
{-3.04275498e-02,3.91232872e-02,2.91563772e-02,1.13255615e-02
,2.47387366e-02,-3.36850830e-02,-2.79350811e-02,2.04753728e-02
,6.85826334e-03,2.39860118e-02,-2.84690819e-02,-2.70116157e-02
,1.43868494e-02,-6.68769846e-03,-4.41771826e-02,-2.51710765e-03
,-4.35540416e-02,9.59992935e-03,1.10101271e-02,5.91101718e-03
,-2.60974120e-02,-4.48447456e-02,-3.12417703e-02,1.29190868e-02
,-3.68148116e-02,-1.31542962e-02,-2.79582436e-02,3.51893561e-02
,2.62661903e-02,-2.93910080e-02,4.67923658e-02,3.53159305e-02
,2.36050190e-02,-1.79783361e-03,-1.01376446e-02,1.37596815e-02
,4.98874141e-03,1.29202703e-02,-3.38075976e-02,1.74329312e-02
,-3.47780827e-02,1.31616893e-02,2.10194893e-02,-2.41568280e-02
,-2.98319863e-02,2.33877096e-02,1.13837728e-02,1.81781159e-02
,2.63661323e-02,-3.73603054e-02,-2.91791071e-03,3.76627564e-03
,3.04068720e-02,6.32074550e-03,-3.42471822e-02,4.36259352e-02
,1.68147608e-02,-4.16496627e-02,-7.71885944e-03,3.12698611e-02
,2.25291495e-02,3.53971095e-02,-3.93806080e-02,-4.11709597e-02
,-3.43258055e-02,1.54609561e-02,4.07252812e-03,4.19709116e-02
,6.07329700e-02,-2.92931050e-02,1.46515137e-02,2.09705333e-02
,2.45266252e-03,-1.46353894e-02,-4.24323633e-02,3.83291363e-02
,-2.80053950e-02,6.64147546e-03,4.93113986e-02,-1.43340988e-02
,2.61004698e-02,-1.07681781e-02,3.32827703e-02,-1.80895299e-02
,-4.83141404e-02,-2.42194120e-02,1.56909724e-02,4.36786812e-02
,4.44252217e-02,-2.64086829e-02,-3.76638010e-03,2.53950647e-02
,-3.58238356e-02,2.36705819e-02,-1.59649183e-02,5.34372258e-02
,-1.60153817e-02,5.61746562e-02,-1.30302622e-02,1.35078728e-02
,-6.78715431e-03,9.69192062e-03,-3.89832497e-02,-1.30615657e-02
,-8.27648549e-03,-2.48082316e-02,3.86022513e-02,1.22184752e-02
,2.70975196e-02,-4.73167055e-03,-2.72177130e-04,-8.85651096e-03
,1.90374305e-02,4.56182168e-02,2.15597239e-02,-1.85713287e-02
,-1.04033045e-02,3.40974858e-02,-1.15606673e-02,-9.95797236e-03
,2.19856032e-02,1.85441020e-02,8.76365804e-02,6.69846372e-02
,2.02569017e-02,4.99695001e-03,6.60546197e-02,1.17123653e-02
,4.95019149e-02,3.30516021e-02,-2.61504372e-02,-5.35940514e-02
,-6.38415349e-02,-1.26139719e-03,9.34331050e-03,4.32597682e-02
,-8.81948085e-03,-4.89021938e-02,1.48683998e-02,-4.58026019e-02
,9.26250041e-03,-2.55263770e-02,-3.09078524e-02,-1.25550165e-03
,-1.27412679e-03,-5.90980708e-02,-3.88966160e-02,1.39949451e-02
,1.01975992e-02,6.61551052e-02,8.31081490e-02,6.54205532e-02
,-4.49233698e-02,-1.23199879e-01,-1.20686788e-01,-7.39507426e-02
,2.57186968e-02,7.18438990e-02,4.08891376e-02,5.88694744e-02
,-8.57837286e-03,8.34338857e-02,5.74689792e-02,1.07642097e-02
,-2.24273113e-02,-2.05206170e-02,2.02600034e-02,-2.13065130e-02
,-4.17286986e-02,1.43414290e-02,4.45676088e-02,2.10745708e-02
,3.21089720e-02,3.69371698e-02,5.43388231e-02,3.33385032e-02
,7.07291540e-02,1.24699561e-01,3.70097875e-03,-3.33450176e-02
,-6.72796442e-02,-7.89423031e-02,-1.69323271e-01,-1.94597974e-01
,-1.23227125e-01,-1.38729416e-01,-6.04948766e-03,5.08874545e-02
,8.70636998e-03,4.62710131e-02,1.10072428e-01,9.83319005e-02
,9.21771255e-02,4.14662094e-02,-3.09633406e-02,-1.30510336e-02
,2.41417214e-02,2.37143730e-03,1.28019513e-02,-2.93299437e-02
,-1.82539765e-02,8.96227364e-02,6.95845076e-02,9.34278646e-02
,1.28408322e-01,1.68654340e-02,-5.05309548e-02,-4.16947437e-02
,8.48061568e-03,-6.07616062e-02,-1.36648648e-01,-1.99828117e-01
,-1.69450013e-01,-6.17205684e-02,-1.36588030e-02,-2.00672095e-03
,2.25760391e-03,8.73649007e-02,1.14614579e-01,1.04557451e-01
,3.76370630e-02,1.75671160e-02,-7.05447784e-03,-3.63428907e-02
,-1.62298743e-02,-3.95942590e-02,-4.95467132e-02,-4.68095855e-02
,5.12847652e-02,1.66481273e-02,-4.45035451e-02,7.36393551e-03
,-1.02336207e-01,-5.75354996e-02,-5.70255771e-02,4.93234680e-02
,6.72433252e-03,-4.01375258e-02,-1.57822806e-01,-1.27373187e-01
,-6.15001184e-02,9.77656101e-02,7.71230395e-02,1.10167656e-01
,6.59117263e-03,1.21793535e-02,7.51528670e-02,7.83987997e-02
,8.98514171e-02,1.05167152e-02,-3.32413220e-02,9.06127449e-03
,-3.59563818e-02,3.87554193e-02,1.14757709e-02,-2.94600915e-03
,-4.64690060e-02,1.67462070e-02,-4.76153789e-02,-8.83752051e-02
,-3.99797480e-02,-6.28999975e-02,-2.55491691e-02,-6.16510262e-02
,-3.39233562e-02,-1.26702024e-01,-2.48680038e-01,-2.07756791e-01
,-8.67516033e-03,2.93385867e-02,6.83542105e-02,5.77668786e-02
,4.79555473e-02,1.15497798e-01,5.42599870e-02,8.02362537e-02
,3.83752285e-02,1.51450938e-02,-4.55939976e-02,3.80251032e-02
,-2.10959426e-02,-2.95146647e-02,-4.88799812e-02,-1.30417780e-02
,1.23427676e-02,-1.31735391e-02,-3.97460644e-02,-8.40133647e-02
,-2.44069044e-02,-6.61061222e-02,-7.00213147e-02,1.20031076e-02
,-1.83625251e-02,-1.18788883e-01,-2.63006576e-01,-1.84846734e-01
,5.05158958e-03,9.74479075e-02,1.07385196e-01,9.14559546e-02
,5.06781149e-02,-1.94103316e-02,-4.44287148e-02,-4.13469334e-02
,-2.31278606e-02,3.86155463e-02,-1.34899819e-02,-3.26540858e-03
,-5.64196251e-03,1.10933307e-02,1.45026567e-02,-3.89923470e-02
,-1.00154325e-01,-7.41471529e-02,-8.59635493e-02,-9.11231912e-02
,-6.54715136e-02,1.86993578e-03,-1.89862274e-02,-3.38468249e-03
,-4.72274761e-02,-1.74513223e-01,-2.50466488e-01,-2.24893851e-01
,1.59932220e-02,-1.31450415e-02,1.19956637e-02,-2.06220434e-02
,-1.20353378e-01,-9.60008578e-02,-1.24477687e-01,-1.04235550e-01
,1.83016903e-02,3.36588237e-02,-6.45408076e-03,8.19605803e-03
,4.48881113e-02,4.01746638e-02,-2.59847506e-02,-3.41551900e-02
,-6.15400940e-02,-1.39717570e-01,-3.99484233e-02,-1.14671734e-02
,-3.63424026e-02,1.16703471e-02,4.94731389e-02,9.02310013e-02
,1.70633620e-01,1.53645038e-02,-1.81317170e-01,-1.62102536e-01
,-8.16594413e-02,-1.26356454e-01,-9.95801421e-02,-1.03119285e-01
,-1.40202288e-01,-1.62153787e-01,-1.36651268e-01,-1.27558415e-01
,-9.82405504e-04,-3.60547296e-02,3.24009116e-02,-8.01492348e-03
,4.47693496e-02,-3.69340569e-02,-2.52519514e-02,-6.71334571e-02
,-1.23369622e-01,-5.40110887e-02,-9.83275056e-03,5.99360513e-05
,8.94188362e-02,6.19402909e-02,3.83302816e-02,1.86776650e-01
,1.98876467e-01,-1.19162065e-02,-1.79687339e-01,-1.11704307e-01
,-8.45584181e-02,-6.51438522e-02,-6.91601747e-03,-9.60070677e-02
,-1.53188889e-01,-1.61510626e-01,-7.13115469e-02,-7.64908235e-03
,2.34374014e-02,-1.18836173e-02,-1.94890417e-02,-3.84280382e-02
,-3.01293233e-02,-1.11419029e-02,-3.33302343e-02,2.85446946e-02
,-5.36273678e-02,3.65959946e-02,1.91951066e-02,5.49129386e-02
,1.38497115e-01,9.81766847e-02,9.68355048e-02,1.74655955e-01
,1.84146297e-01,5.40503718e-02,9.16695768e-03,-1.09886915e-02
,-4.96567186e-02,-1.86340125e-02,-9.22883314e-02,-4.67279971e-02
,-8.42016049e-02,-5.36371963e-02,-7.65199126e-02,-5.14124967e-02
,2.81811197e-02,-1.60777794e-02,1.85854130e-02,1.98593107e-02
,2.26263639e-02,-1.86944279e-02,5.06149987e-04,6.15254733e-02
,7.03294050e-03,7.28363336e-02,4.27134261e-02,3.10299076e-02
,6.82304111e-02,1.27108089e-01,4.38926831e-02,3.65560520e-02
,1.11694897e-01,9.16833317e-02,6.68947817e-02,-4.11832873e-02
,4.09956600e-02,-1.96951500e-02,-2.05020056e-02,-6.02661880e-02
,-4.91645233e-02,-1.23153326e-02,-1.00426390e-02,8.82659224e-02
,9.17829751e-02,9.34693200e-03,4.83098915e-02,4.94993839e-02
,1.55157919e-02,4.02385419e-02,-2.01030974e-02,7.20817410e-02
,7.38869802e-02,4.45298148e-02,1.41653312e-02,-5.52185552e-04
,3.00695290e-02,9.39461359e-02,3.77655449e-03,6.39669869e-02
,6.91732455e-02,6.96266444e-02,8.48118943e-03,3.78475744e-02
,5.80835072e-02,6.95426249e-03,-4.27014329e-02,-1.94245720e-02
,4.26936371e-02,8.56350220e-02,8.31702138e-02,1.06477233e-01
,4.61301918e-02,4.05425067e-02,-1.10501238e-02,2.36461113e-02
,3.79919229e-03,-2.87460472e-02,-1.27856944e-02,1.39053718e-02
,3.32979468e-02,1.24333047e-01,6.77875286e-02,3.30532390e-02
,4.55542303e-02,-1.31778924e-02,-6.37864423e-02,2.40117149e-02
,-6.56394636e-03,-9.31674121e-03,2.50443308e-02,2.81314365e-02
,4.77011309e-02,-4.04242735e-03,2.33358279e-02,-1.12932922e-03
,-1.25532568e-02,8.66719906e-02,9.82563566e-02,7.45062841e-02
,5.42259632e-02,8.60667567e-02,-3.73883251e-02,-2.46357186e-03
,3.23000358e-02,3.19545203e-02,-1.59875929e-02,9.30092976e-02
,1.16846809e-01,9.62531460e-02,1.43344372e-01,8.84174858e-02
,3.48254564e-02,-2.67958176e-02,-8.01463717e-02,-5.87445192e-02
,-3.82891723e-05,-4.30971764e-02,-9.42154112e-02,-8.49533338e-02
,-1.28598201e-02,-9.74227248e-02,-6.90931398e-02,-8.32401619e-02
,1.44650466e-02,5.13357520e-02,1.32517742e-01,1.64267142e-01
,6.03950696e-02,1.93351970e-02,-4.00852460e-02,-4.39219400e-02
,-2.86235638e-02,-3.91882165e-03,-2.67460250e-02,1.89813080e-02
,6.56628584e-02,8.82233173e-02,9.21459858e-02,1.41864988e-01
,9.54531169e-02,-2.13558960e-02,-2.53727930e-02,-2.58993219e-02
,-7.15007505e-02,-1.99905719e-02,-1.02173931e-01,-7.25108091e-02
,-9.99079790e-02,-7.41772055e-02,-6.29189257e-02,-9.58239992e-02
,7.77916130e-02,1.12212722e-01,8.16013110e-02,9.15461222e-02
,2.04133149e-02,6.50072526e-03,4.76103776e-03,-1.62661842e-03
,2.33964837e-02,3.49704446e-02,2.68077064e-02,1.08344982e-02
,1.01297069e-01,6.07750839e-02,9.21427242e-02,6.13918702e-02
,3.56425103e-02,-5.04589224e-03,-5.54566034e-02,-8.32787525e-02
,-7.68855496e-02,-1.94050309e-01,-1.63865995e-01,-8.16175239e-02
,-4.83283745e-02,-6.50217189e-02,4.84697653e-02,-4.42525114e-02
,1.38576453e-01,1.53949228e-01,8.85413707e-02,7.56724413e-02
,8.71333183e-03,-3.98808171e-02,4.04566638e-02,-3.56711719e-02
,-2.32410597e-02,-4.50161820e-02,1.32548418e-02,7.72853531e-03
,6.54431921e-02,5.42409186e-02,-3.18197477e-02,4.63166001e-02
,3.08527792e-02,-3.09504009e-02,-9.37520057e-02,-9.13961699e-02
,-1.04720819e-01,-1.17229993e-01,-6.69625853e-02,1.33359056e-02
,-1.01654837e-01,1.08747889e-03,9.22944563e-03,1.00534471e-01
,7.37372347e-02,1.03629774e-01,8.67779907e-02,8.46791191e-02
,3.24029062e-02,3.73054284e-04,2.00630918e-02,3.40014326e-02
,-2.12981053e-02,1.23020271e-02,5.04841878e-02,3.52775109e-02
,-2.85770439e-02,4.69085755e-02,-6.87721544e-02,1.30907654e-02
,-6.76499067e-03,1.86406265e-02,-8.11426338e-03,4.48435476e-02
,-1.30087043e-03,4.33498880e-02,-1.15331559e-02,2.12959407e-02
,4.78317919e-02,4.23104704e-02,6.92796202e-02,1.42314817e-01
,1.00110878e-01,9.52449332e-02,4.09735134e-02,7.01372801e-02
,3.57060373e-02,-4.16891412e-03,3.90575129e-02,-3.62829746e-02
,1.40610394e-02,4.66254939e-02,1.82885486e-02,3.00223812e-02
,2.56360609e-02,2.56006615e-03,-2.59397764e-02,-8.80200485e-03
,-4.39451502e-02,-2.73348546e-02,3.29512261e-02,9.38330205e-03
,4.68965797e-02,2.58414034e-02,7.08254130e-02,1.81675826e-02
,3.53170754e-02,1.80640211e-02,1.15535046e-01,1.43874570e-01
,7.09198482e-02,3.95140592e-02,1.79266408e-02,-2.16124098e-02
,-3.03744149e-02,-9.26993648e-03,-1.14756270e-02,1.42203249e-02
,1.39242276e-02,2.57752776e-03,-1.32441731e-02,-8.82337250e-03
,-2.66759833e-02,-7.86529185e-03,-1.05354044e-01,-7.33196841e-03
,-6.23195334e-02,-1.95111514e-02,-1.36051472e-02,-2.81848554e-02
,3.57600892e-03,6.50264493e-02,1.16929928e-01,5.55175862e-02
,1.03855754e-01,6.68339310e-02,-1.74050661e-02,1.21551848e-02
,-3.97767330e-02,1.22114094e-02,2.75750099e-02,6.01959468e-03
,4.12190998e-02,-4.07334491e-02,-2.45061391e-02,4.45272869e-02
,-1.43056730e-02,1.17744526e-02,-2.76454275e-02,-1.45236898e-02
,2.46902799e-02,1.48499412e-02,-8.02741132e-02,-5.11832043e-02
,-3.15230206e-02,-1.04901753e-01,7.46698204e-05,-5.37926190e-02
,-8.34836105e-02,-3.64018296e-02,-7.32076510e-02,3.78946528e-02
,1.63704780e-02,-6.83115866e-02,-8.66379577e-02,-1.37350140e-01
,-1.37725226e-01,-9.71720320e-02,-8.48920158e-03,3.62662715e-02
,-3.59651034e-02,-5.30472812e-03,1.72429448e-02,1.04599422e-02
,3.51573659e-02,-3.75594396e-02,-2.87801632e-02,1.43696365e-03
,2.88905997e-02,-4.57145636e-02,-1.16290543e-02,-5.81579220e-02
,-4.22519950e-02,-4.34859077e-02,-5.37253772e-02,-1.03863769e-01
,-4.50046910e-02,-5.67744248e-02,-1.15117795e-01,-1.56010360e-01
,-1.06505787e-01,-1.31679791e-01,-5.48560149e-02,-3.43799931e-02
,-3.11294012e-02,1.41309785e-03,-1.28725624e-02,2.22447992e-03
,3.29313496e-03,-1.82466725e-03,-1.65577248e-02,8.72498219e-03
,4.71028985e-02,-3.70256106e-02,-2.40345296e-02,7.31794143e-03
,2.63833465e-02,1.89611600e-02,2.07386976e-02,-2.86513579e-02
,-1.64977104e-03,-6.99216108e-03,2.67588872e-02,-4.71144154e-02
,-1.41296535e-02,-1.31664006e-03,1.59344916e-02,2.55609332e-02
,1.01968260e-02,3.56984429e-02,-5.47810352e-03,-1.27139334e-02
,1.60738644e-02,-2.80408759e-02,8.11756823e-03,3.10048150e-02
,-1.40928583e-02,4.11253407e-02,-2.37288272e-02,4.22909636e-02},
{-1.49780450e-02,-3.51589339e-02,-2.58970614e-02,4.35471271e-02
,1.92082643e-02,1.18131819e-02,2.89596533e-02,2.24807906e-02
,4.81768335e-02,-2.04050399e-02,-4.11026480e-02,-3.17661119e-03
,-3.10633391e-02,-1.82874393e-04,4.38258617e-02,-1.46236620e-02
,-2.56936300e-02,1.12213946e-02,2.52158526e-02,2.71906062e-02
,-3.15296402e-02,2.56740881e-02,3.49204978e-02,-1.42183139e-02
,-4.74540717e-02,3.80440573e-02,3.20197007e-02,-1.43018921e-02
,-7.68950312e-03,4.66567480e-02,-3.18030536e-02,-5.05294003e-03
,-2.54856341e-02,2.94440815e-02,4.74796232e-02,3.69270528e-02
,3.72082789e-02,-3.89518051e-02,4.54242102e-02,-6.78092378e-04
,-1.21356319e-02,-1.46647134e-02,4.44409177e-02,2.37335542e-02
,-2.49334655e-02,4.14924284e-02,-1.77046527e-02,2.34684237e-02
,-4.66224622e-04,3.54260789e-02,3.67710370e-02,-4.78600568e-02
,-1.19974100e-02,2.01298684e-02,-8.18814114e-03,2.47921834e-02
,-3.07436217e-02,-2.49282125e-02,-1.70988050e-02,1.24798992e-02
,-8.22865124e-03,4.23669750e-03,-1.22495503e-02,1.80408392e-02
,-2.76252784e-02,4.05518103e-02,-1.36804894e-02,-1.48196427e-02
,-1.02796281e-02,2.32700540e-02,-5.21055802e-03,5.11097369e-02
,1.57655920e-02,5.23917956e-02,-9.42233721e-05,-9.43703893e-03
,4.01155383e-03,-3.02930887e-03,-2.51690317e-02,-4.19958003e-03
,4.64905373e-02,2.48267349e-02,-3.57150647e-02,-3.46287299e-02
,1.74606892e-02,7.64404288e-03,-2.74363235e-02,-3.58834395e-02
,1.88117001e-02,3.98582248e-02,3.83607996e-02,-2.88825653e-02
,1.55803139e-02,1.71913937e-02,1.76857714e-02,-2.00709713e-02
,-3.80901312e-02,-2.83672737e-04,-3.81198206e-02,1.97579959e-03
,9.82787303e-03,-2.62909092e-02,1.23416547e-02,-9.37957126e-03
,-3.43294639e-02,-8.87479196e-03,6.32357104e-02,-2.12836818e-03
,1.81413523e-02,-1.70833871e-03,-1.00348653e-03,5.02070413e-03
,-2.21558077e-02,3.13928929e-02,3.98050547e-02,3.17497626e-02
,-4.19355455e-02,-5.72197156e-03,-1.61641813e-02,-1.49156461e-02
,4.89455491e-02,9.81873659e-03,-7.38233637e-03,-1.13088804e-01
,-8.22843716e-02,-5.57130795e-02,-9.83762038e-02,-1.09507899e-01
,-9.34867224e-02,-8.91168280e-02,-7.03756498e-02,-5.83142218e-02
,1.25082080e-03,-8.68179048e-02,-8.58589384e-02,-6.72337791e-02
,-6.32444739e-02,-5.33852247e-02,-3.33245356e-02,2.55681031e-02
,4.83250519e-02,3.52667095e-03,1.69742543e-03,-2.14751274e-02
,1.71395744e-03,3.05337128e-02,6.42273574e-02,2.85581532e-03
,-5.83564890e-02,-9.99845610e-02,-1.72485697e-01,-1.85929941e-01
,-1.27374741e-01,-9.90497212e-02,1.78472794e-02,1.00921841e-02
,4.31828953e-02,8.75643283e-03,-8.89907828e-02,-2.11661848e-02
,-1.07527090e-01,-1.29255211e-01,-1.06336796e-01,-1.25360680e-01
,-2.85520210e-02,-5.41199517e-02,-1.05830063e-02,1.74887589e-02
,3.03627358e-02,1.36605292e-02,5.68336452e-03,3.16438996e-02
,4.60081658e-02,1.58439403e-02,-2.58145480e-02,-8.51085331e-02
,-9.35366335e-02,-6.49528757e-02,-1.09465163e-01,-1.31981869e-01
,1.85845166e-03,-4.69012896e-02,-4.00678269e-02,-7.79575902e-04
,-6.46478746e-02,-1.17621567e-01,-1.06935773e-01,-1.59161693e-01
,-5.93186351e-02,-1.33726137e-01,-8.54578453e-02,-8.74442271e-02
,-1.16491244e-01,-3.53866210e-02,-3.11273962e-02,4.53380792e-03
,8.95774775e-03,-2.44986051e-02,-3.86450113e-02,-1.25986932e-02
,8.45293325e-02,9.06181412e-03,-3.26924710e-02,-2.16192322e-02
,-3.06614466e-02,-6.58857555e-02,-1.04694462e-01,-1.91418476e-01
,-1.23971692e-01,-1.54517255e-02,-1.24737560e-02,-2.20331564e-02
,-1.83471175e-01,-7.93343666e-02,-1.19025108e-01,-9.10089239e-02
,-3.89294562e-02,1.88649602e-02,1.65914633e-02,3.34558739e-02
,-1.44559989e-02,-6.68982654e-02,4.51465804e-04,-1.89042818e-02
,-2.99778296e-02,-3.26949381e-02,1.86995154e-02,2.72894702e-02
,1.10926732e-01,3.89372948e-02,4.30407005e-02,8.66124081e-02
,1.31790520e-02,-1.35102529e-01,-4.84116774e-02,-2.15584377e-01
,-1.43557927e-01,1.06188326e-01,1.40468852e-01,1.29951036e-01
,4.02880567e-02,5.60049407e-02,9.11402658e-02,2.12521030e-01
,8.56582891e-02,2.04828466e-01,1.49118511e-01,5.28101369e-02
,-5.80734929e-02,-1.70454971e-02,3.08738320e-02,3.17269925e-02
,-1.67616868e-02,-1.03826735e-02,-2.00805143e-02,1.37448199e-02
,6.03067337e-03,3.24990560e-02,-4.05543415e-02,-2.65009847e-02
,-1.10793309e-01,-1.34619898e-01,-2.43489626e-01,-3.71803899e-01
,-1.58319119e-01,1.42853760e-01,3.46626572e-01,2.83309616e-01
,2.73924936e-01,2.52605386e-01,2.68920307e-01,3.96658287e-01
,2.56671002e-01,2.21762676e-01,2.23256199e-01,5.46046347e-02
,-7.68867353e-02,-7.21722367e-02,2.23126687e-02,2.88534857e-02
,-8.62695517e-04,-4.89236505e-02,-1.04640043e-02,4.96678632e-03
,-1.08484694e-03,5.87811813e-02,1.05107050e-03,-6.47896932e-02
,-1.56041291e-01,-2.75113766e-01,-2.91203968e-01,-3.01328749e-01
,-7.68132544e-02,3.19111115e-01,3.63863032e-01,2.92689382e-01
,2.79571701e-01,2.99244743e-01,3.10155034e-01,3.42824514e-01
,2.10219926e-01,1.92927567e-01,1.91891527e-01,1.09477445e-01
,1.98272990e-02,-5.55184837e-03,-2.90224949e-02,-8.09260067e-03
,3.61502732e-02,1.08276156e-02,-1.12680671e-02,-3.38040852e-02
,2.58073361e-02,-2.61353432e-02,-6.23349761e-02,-1.16480317e-01
,-1.19192608e-01,-1.30551331e-01,-1.90025715e-01,-5.92527670e-02
,1.35386739e-01,3.56454290e-01,2.62765446e-01,1.35363570e-01
,8.42533214e-02,1.35173634e-01,1.56673713e-01,2.11520110e-01
,2.00054571e-01,2.09954578e-01,1.64248341e-01,1.76369107e-02
,-3.18959566e-02,-5.01690421e-02,4.58814333e-02,-2.01115435e-02
,8.58460758e-03,-1.66110897e-02,-4.98571157e-02,3.25281828e-02
,8.70783598e-03,-7.25178264e-02,-1.75457287e-01,-6.12449623e-02
,-9.09548532e-02,-1.20313824e-01,-1.72835542e-01,2.38076118e-02
,1.95984995e-01,1.69003864e-01,2.20902587e-01,1.17248150e-01
,1.42724252e-01,1.32595202e-01,1.27283081e-01,7.93245841e-02
,3.47238579e-02,7.31608982e-02,2.67361797e-02,-1.08762836e-02
,1.35098391e-02,6.00050987e-02,-1.60618315e-02,1.52617902e-02
,-3.19004193e-02,-3.24043593e-02,2.24105036e-02,4.20670551e-02
,-5.49774569e-02,-5.19614820e-02,-4.16534693e-02,-1.30195572e-01
,-2.24909896e-02,1.61990144e-02,-2.16321182e-02,2.56419723e-03
,7.02564484e-02,1.11078398e-01,2.03874334e-02,8.62439519e-02
,1.11863974e-01,9.97394981e-02,1.82922448e-01,1.53668537e-02
,3.41920987e-02,4.25948137e-02,2.82591722e-02,-7.06177430e-02
,-3.58710901e-02,4.64267814e-02,2.57589646e-02,-5.34222726e-03
,3.73687748e-02,6.08515914e-03,-4.28132083e-02,-3.24493158e-02
,-8.16884233e-02,-1.23620358e-02,-3.27049048e-03,-4.27197640e-02
,-4.17404584e-02,-1.17467482e-02,-1.63091842e-02,3.20265635e-02
,8.26716548e-02,1.06316800e-01,4.18849734e-02,3.60157056e-02
,6.69318317e-02,1.00001271e-01,1.27944073e-01,1.61142152e-01
,1.78008378e-02,-2.10010999e-02,-8.62106115e-02,-1.36356614e-01
,-4.06294606e-02,6.73132282e-02,-1.72691224e-02,-1.17975106e-02
,-4.28001419e-02,2.53141937e-02,-1.16186331e-02,-6.58274844e-03
,-6.51207628e-02,-7.51403119e-03,5.16965059e-02,-2.05222466e-02
,4.09272913e-02,4.26857995e-02,-6.97514480e-02,1.69854372e-02
,4.56493386e-02,5.53164833e-02,1.18860126e-01,9.60639703e-02
,1.33994142e-01,1.40261070e-01,2.61659172e-03,4.65990966e-02
,1.57211527e-02,-5.24653257e-02,-1.25294004e-02,-1.63063332e-01
,-5.85346871e-02,7.26688289e-02,5.91954487e-02,-1.82380030e-03
,-2.89686582e-02,-2.12856994e-03,-2.90072612e-02,3.76516569e-02
,4.80717235e-02,-1.05598845e-03,4.95132733e-02,1.50076835e-01
,6.39700628e-02,1.23845698e-01,5.95425919e-02,5.58371817e-02
,7.12672154e-02,1.13172635e-01,2.42325190e-01,1.80983112e-01
,1.81847778e-01,1.45365709e-01,6.71546276e-02,3.50676614e-03
,6.22766027e-02,-1.19266806e-03,-1.24534254e-01,-1.29109131e-01
,-3.72604688e-02,4.15590798e-02,4.05111956e-02,7.63950773e-04
,9.55677120e-03,-3.98537816e-03,-5.04883727e-02,-4.21821209e-02
,2.71945698e-02,5.58797356e-02,8.61637388e-02,8.65404292e-02
,9.59767231e-02,1.12845745e-01,6.25924868e-02,1.00770508e-01
,7.14646194e-02,2.41929158e-01,3.30659808e-01,3.05527369e-01
,2.44630840e-01,1.25537038e-01,3.87803425e-02,-6.86072694e-02
,-2.75583383e-03,2.12650320e-02,-9.46401330e-02,-8.20783058e-02
,-4.96627079e-02,4.64778405e-02,1.34154876e-02,-2.54574535e-02
,3.05284294e-02,-2.16277329e-02,-4.25977421e-02,3.26052810e-02
,5.61223238e-02,6.78991742e-02,1.35785490e-01,1.49579009e-01
,1.84864049e-01,2.04271200e-01,1.25371914e-01,2.42698383e-01
,2.26263073e-01,4.13481559e-01,3.58412193e-01,3.73435613e-01
,2.18867364e-01,6.92022907e-02,-4.79728534e-02,-1.31899408e-01
,-1.09292131e-01,-1.21885645e-01,-5.74880738e-02,-1.08947272e-01
,-2.67964800e-02,-9.07885102e-03,5.08504404e-02,7.99774453e-03
,2.85188591e-02,-2.92470988e-02,3.61045147e-02,2.35099068e-02
,-3.78130107e-02,3.25986113e-02,1.50307359e-01,1.04537704e-01
,9.60118656e-02,2.12594025e-01,2.20256721e-01,1.73944885e-01
,2.30092999e-01,3.92850318e-01,3.65714567e-01,3.31013089e-01
,2.11493066e-01,-5.34325374e-02,-2.71260378e-02,-1.04988962e-01
,-1.14766086e-01,-1.30235352e-01,-8.31848588e-02,-1.27730949e-01
,-4.05936043e-02,-2.08152829e-02,2.04932060e-02,3.08149771e-02
,-2.10488750e-02,4.18862536e-03,-1.29875050e-02,1.47575879e-02
,-4.70612542e-02,4.50041828e-02,1.00273359e-01,1.28329302e-01
,1.11099619e-01,5.13513753e-02,1.00245070e-01,1.29689151e-01
,1.58016482e-01,1.95846396e-01,2.67566915e-01,1.46278201e-01
,3.29349566e-04,-1.89700934e-02,-6.86490935e-02,-1.45469561e-01
,-1.21745993e-01,-8.56101473e-02,-1.90846664e-01,-1.43085166e-01
,-7.79377468e-02,-6.65572861e-03,1.26680603e-02,-3.25540318e-02
,-2.25137962e-02,2.63954280e-02,-1.72619658e-02,-4.21847103e-02
,2.37540044e-02,-1.51057280e-02,9.97257788e-02,7.46945143e-02
,8.95549334e-02,1.42124947e-01,6.77033703e-02,5.43576297e-02
,6.30271864e-02,5.17040386e-02,-1.53128883e-03,-6.85665479e-02
,-7.20455046e-02,4.89707757e-02,-1.48142089e-01,-1.07908077e-01
,-9.93527026e-02,-1.58028992e-01,-1.46119669e-01,-9.20203077e-02
,-5.65529083e-02,-1.74239459e-02,-1.09233332e-02,2.36680300e-02
,-1.57196890e-02,1.30300603e-02,-1.80025495e-02,-4.70085971e-02
,-4.60218107e-03,1.39414247e-02,7.97770077e-02,6.50778062e-02
,1.05559505e-01,6.98021005e-02,8.60613097e-02,1.12351879e-01
,7.52690485e-02,1.52988780e-02,-8.97328513e-02,-6.80858308e-02
,-1.00783848e-01,-8.62645731e-02,-1.09086032e-01,-1.48412274e-01
,-1.48153165e-01,-4.14876080e-02,-1.09299694e-01,-6.13966713e-02
,3.35671372e-02,-4.23628408e-03,3.03531741e-02,-3.97476299e-02
,2.79015981e-02,4.14767645e-03,-4.05681948e-02,4.38340425e-02
,8.59800905e-03,1.18166769e-03,-1.98715293e-02,3.34481711e-02
,9.79345810e-02,5.56981490e-02,-1.95455721e-02,3.90735592e-02
,4.53215486e-03,-7.57197561e-02,-1.09260865e-01,-6.52737692e-02
,-2.27705131e-02,-5.40249509e-02,-1.03161547e-02,-7.96199799e-02
,-4.33938985e-02,3.54089687e-02,2.06088348e-02,2.56639359e-02
,8.69820299e-03,4.28723624e-02,-4.38061748e-02,2.02277459e-02
,3.29649578e-02,9.28109996e-03,-3.45315450e-02,-1.47999078e-02
,7.44284248e-03,-8.48555101e-03,-3.31770182e-02,-3.69567118e-02
,-3.97343748e-02,-5.74559601e-03,-2.38489698e-02,9.63806066e-03
,-4.64306892e-02,-4.87375981e-02,-2.49850605e-02,4.70085964e-02
,5.05211383e-02,-9.87186086e-02,-4.68229559e-02,-8.88001179e-02
,-5.61810208e-02,-3.29856064e-02,-6.38650280e-02,-6.08694239e-02
,2.39332099e-02,4.30177500e-02,3.39409257e-02,-3.14098037e-02
,-2.45923349e-02,4.37187553e-02,3.67748040e-02,-3.50634532e-02
,3.25681873e-02,4.91955253e-02,1.90113156e-02,-6.93613019e-03
,-6.16002976e-02,-5.53330228e-03,-6.09711947e-02,-9.55409452e-02
,-1.34277173e-01,-1.36822000e-01,-5.39601235e-02,-7.84757044e-02
,-1.09276438e-01,-1.45790444e-01,-1.01495511e-01,-8.88412307e-02
,-6.27980701e-02,-7.13450309e-02,3.42941871e-03,-3.63906143e-02
,2.15203311e-02,5.41872190e-03,2.89971611e-02,2.83790553e-02
,2.89462561e-02,2.16070056e-03,-3.00409402e-02,-1.69011638e-03
,1.04117691e-02,-3.83965228e-02,2.75913563e-02,2.99656622e-02
,3.62653773e-02,3.98785844e-02,-4.02650504e-02,-7.36561558e-02
,8.00572163e-05,-1.76864391e-02,-7.60587211e-02,-4.22388592e-02
,-5.25517611e-02,-5.11071916e-03,-1.23431989e-02,-8.26118323e-02
,-4.32580043e-02,1.79350168e-02,-7.38099930e-04,2.64632687e-02
,-3.85807316e-03,-1.85261881e-02,-1.69946676e-02,4.23091213e-02
,-1.41546050e-02,3.45112744e-02,2.88119684e-02,-2.05149066e-02
,-1.17991054e-02,1.89914911e-02,-1.28634984e-02,5.35220168e-03
,3.05324476e-02,2.56736687e-02,-2.65669008e-02,-5.36963626e-03
,3.23702021e-02,-2.05977208e-02,-4.87026891e-02,-6.14495493e-03
,4.48094101e-02,-3.78747984e-02,3.55893550e-02,3.71605524e-02
,-2.67902350e-02,1.52080924e-02,2.75859848e-02,-2.26350454e-03
,1.57027740e-02,2.78915682e-02,2.11367068e-03,-3.92688276e-02},
{-1.00118408e-02,-3.49842044e-02,2.97841044e-02,4.36596083e-02
,3.53484524e-02,4.26825073e-03,-1.96554906e-02,3.96946444e-02
,3.07277444e-02,2.65539844e-02,7.68273353e-04,-1.79646525e-02
,-1.74630175e-02,-3.30098642e-02,5.71269256e-03,4.24162793e-02
,-4.23484352e-02,-4.27524909e-02,-7.01528419e-03,-1.24197817e-03
,-3.05514214e-02,1.77300972e-03,4.43597127e-02,-2.06532010e-02
,5.55406736e-03,-4.58041187e-02,-2.52064543e-02,4.82865075e-02
,4.63464628e-02,-3.33646898e-02,3.94005123e-02,5.99224130e-03
,3.82833568e-03,-9.99135343e-03,1.83607490e-03,3.97607700e-02
,-2.23803905e-02,-2.57960358e-02,-4.77321492e-02,8.56539894e-03
,-1.31144997e-02,-1.97124659e-02,-1.23182514e-02,4.26257302e-02
,-3.38876303e-02,-3.57627654e-04,-4.23781088e-02,-3.64864308e-02
,1.17354047e-02,-2.41333936e-02,-2.36223955e-02,3.64774992e-02
,-5.25897052e-03,3.76276262e-02,2.04994469e-02,-3.71551409e-02
,2.51936631e-02,3.59650499e-02,1.15884800e-02,-7.50782698e-03
,7.79397502e-03,-8.05301092e-04,-1.02479178e-02,-5.02383570e-02
,-2.21624032e-03,1.17652537e-02,-1.78214049e-02,-5.52811208e-02
,3.93122828e-02,-1.51860174e-02,2.96877097e-02,1.50205860e-02
,-8.63040374e-03,-4.03390065e-02,-3.54385314e-02,-2.73352016e-02
,-6.69499827e-02,-3.84769533e-02,-6.72097247e-03,-3.58052211e-02
,7.08741258e-03,2.15268665e-02,-2.41482080e-02,-4.74745798e-05
